/*
 * Copyright (c) 2024 EdgeImpulse Inc.
 *
 * Generated by Edge Impulse and licensed under the applicable Edge Impulse
 * Terms of Service. Community and Professional Terms of Service
 * (https://docs.edgeimpulse.com/page/terms-of-service) or Enterprise Terms of
 * Service (https://docs.edgeimpulse.com/page/enterprise-terms-of-service),
 * according to your product plan subscription (the “License”).
 *
 * This software, documentation and other associated files (collectively referred
 * to as the “Software”) is a single SDK variation generated by the Edge Impulse
 * platform and requires an active paid Edge Impulse subscription to use this
 * Software for any purpose.
 *
 * You may NOT use this Software unless you have an active Edge Impulse subscription
 * that meets the eligibility requirements for the applicable License, subject to
 * your full and continued compliance with the terms and conditions of the License,
 * including without limitation any usage restrictions under the applicable License.
 *
 * If you do not have an active Edge Impulse product plan subscription, or if use
 * of this Software exceeds the usage limitations of your Edge Impulse product plan
 * subscription, you are not permitted to use this Software and must immediately
 * delete and erase all copies of this Software within your control or possession.
 * Edge Impulse reserves all rights and remedies available to enforce its rights.
 *
 * Unless required by applicable law or agreed to in writing, the Software is
 * distributed on an "AS IS" BASIS, WITHOUT WARRANTIES OR CONDITIONS OF ANY KIND,
 * either express or implied. See the License for the specific language governing
 * permissions, disclaimers and limitations under the License.
 */
// Generated on: 08.12.2024 15:22:20

#include <stdio.h>
#include <stdlib.h>
#include "edge-impulse-sdk/tensorflow/lite/c/builtin_op_data.h"
#include "edge-impulse-sdk/tensorflow/lite/c/common.h"
#include "edge-impulse-sdk/tensorflow/lite/micro/micro_mutable_op_resolver.h"
#include "edge-impulse-sdk/porting/ei_classifier_porting.h"

#if EI_CLASSIFIER_PRINT_STATE
#if defined(__cplusplus) && EI_C_LINKAGE == 1
extern "C" {
    extern void ei_printf(const char *format, ...);
}
#else
extern void ei_printf(const char *format, ...);
#endif
#endif

#if defined (__GNUC__)  /* GNU compiler */
#define ALIGN(X) __attribute__((aligned(X)))
#define DEFINE_SECTION(x) __attribute__((section(x)))
#elif defined (_MSC_VER)
#define ALIGN(X) __declspec(align(X))
#elif defined (__TASKING__) /* TASKING Compiler */
#define ALIGN(X) __align(X)
#define DEFINE_SECTION(x) __attribute__(section(x)))
#elif defined (__ARMCC_VERSION) /* Arm Compiler */
#define ALIGN(X) __ALIGNED(x)
#define DEFINE_SECTION(x) __attribute__((section(x)))
#elif defined (__ICCARM__) /* IAR Compiler */
#define ALIGN(x) __attribute__((aligned(x)))
#define DEFINE_SECTION(x) __attribute__((section(x)))
#elif defined (__clang__) /* LLVM/Clang Compiler */
#define ALIGN(X) __ALIGNED(x)
#define DEFINE_SECTION(x) __attribute__((section(x)))
#endif

#ifndef EI_MAX_SCRATCH_BUFFER_COUNT
#ifndef CONFIG_IDF_TARGET_ESP32S3
#define EI_MAX_SCRATCH_BUFFER_COUNT 14
#else
#define EI_MAX_SCRATCH_BUFFER_COUNT 28
#endif // CONFIG_IDF_TARGET_ESP32S3
#endif // EI_MAX_SCRATCH_BUFFER_COUNT

#ifndef EI_MAX_OVERFLOW_BUFFER_COUNT
#define EI_MAX_OVERFLOW_BUFFER_COUNT 10
#endif // EI_MAX_OVERFLOW_BUFFER_COUNT

using namespace tflite;
using namespace tflite::ops;
using namespace tflite::ops::micro;

namespace {

#if defined(EI_CLASSIFIER_ALLOCATION_STATIC_HIMAX) || defined(EI_CLASSIFIER_ALLOCATION_STATIC_HIMAX_GNU)
constexpr int kTensorArenaSize = 242656;
#else
constexpr int kTensorArenaSize = 241632;
#endif

#if defined(EI_CLASSIFIER_ALLOCATION_STATIC)
#if defined (EI_TENSOR_ARENA_LOCATION)
#define STRINGIZE(x) #x
#define STRINGIZE_VALUE_OF(x) STRINGIZE(x)
uint8_t tensor_arena[kTensorArenaSize] ALIGN(16) DEFINE_SECTION(STRINGIZE_VALUE_OF(EI_TENSOR_ARENA_LOCATION));
#else
uint8_t tensor_arena[kTensorArenaSize] ALIGN(16);
#endif
#elif defined(EI_CLASSIFIER_ALLOCATION_STATIC_HIMAX)
#pragma Bss(".tensor_arena")
uint8_t tensor_arena[kTensorArenaSize] ALIGN(16);
#pragma Bss()
#elif defined(EI_CLASSIFIER_ALLOCATION_STATIC_HIMAX_GNU)
uint8_t tensor_arena[kTensorArenaSize] ALIGN(16) __attribute__((section(".tensor_arena")));
#else
#define EI_CLASSIFIER_ALLOCATION_HEAP 1
uint8_t* tensor_arena = NULL;
#endif

static uint8_t* tensor_boundary;
static uint8_t* current_location;

template <int SZ, class T> struct TfArray {
  int sz; T elem[SZ];
};

enum used_operators_e {
  OP_CONV_2D, OP_DEPTHWISE_CONV_2D, OP_PAD, OP_ADD, OP_SOFTMAX,  OP_LAST
};

struct TensorInfo_t { // subset of TfLiteTensor used for initialization from constant memory
  TfLiteAllocationType allocation_type;
  TfLiteType type;
  void* data;
  TfLiteIntArray* dims;
  size_t bytes;
  TfLiteQuantization quantization;
};

typedef struct {
  TfLiteTensor tensor;
  int16_t index;
} TfLiteTensorWithIndex;

typedef struct {
  TfLiteEvalTensor tensor;
  int16_t index;
} TfLiteEvalTensorWithIndex;

TfLiteContext ctx{};
static const int MAX_TFL_TENSOR_COUNT = 4;
static TfLiteTensorWithIndex tflTensors[MAX_TFL_TENSOR_COUNT];
static const int MAX_TFL_EVAL_COUNT = 4;
static TfLiteEvalTensorWithIndex tflEvalTensors[MAX_TFL_EVAL_COUNT];
TfLiteRegistration registrations[OP_LAST];

namespace g0 {
const TfArray<4, int> tensor_dimension0 = { 4, { 1,96,96,3 } };
const TfArray<1, float> quant0_scale = { 1, { 0.0039215688593685627, } };
const TfArray<1, int> quant0_zero = { 1, { -128 } };
const TfLiteAffineQuantization quant0 = { (TfLiteFloatArray*)&quant0_scale, (TfLiteIntArray*)&quant0_zero, 0 };
const ALIGN(16) int32_t tensor_data1[4*2] = { 
  0, 0, 
  0, 1, 
  0, 1, 
  0, 0, 
};
const TfArray<2, int> tensor_dimension1 = { 2, { 4,2 } };
const ALIGN(8) int32_t tensor_data2[3] = { 18698, -25710, -27670, };
const TfArray<1, int> tensor_dimension2 = { 1, { 3 } };
const TfArray<3, float> quant2_scale = { 3, { 0.00026850122958421707, 0.00021187720994930714, 0.00021346785069908947, } };
const TfArray<3, int> quant2_zero = { 3, { 0,0,0 } };
const TfLiteAffineQuantization quant2 = { (TfLiteFloatArray*)&quant2_scale, (TfLiteIntArray*)&quant2_zero, 0 };
const ALIGN(16) int8_t tensor_data3[3*1*1*32] = { 
  /* [0][0][][] */ 69,54,108,-57,-56,-2,-10,15,-21,65,14,6,-29,-76,73,5,-63,47,127,95,-54,-35,44,-60,-89,118,-67,3,103,27,-18,22, 
  /* [1][0][][] */ 62,-44,-69,13,-14,127,-15,-9,121,-70,-2,-107,-63,108,31,-53,91,-45,-43,-94,-111,22,105,60,18,-13,4,-11,-99,-58,-1,-59, 
  /* [2][0][][] */ -30,72,-79,73,83,-41,-31,111,93,14,127,-52,-95,-82,79,117,-81,-50,-22,-110,73,117,-58,-101,84,-78,-17,-116,-9,-85,86,-60, 
};
const TfArray<4, int> tensor_dimension3 = { 4, { 3,1,1,32 } };
const TfArray<3, float> quant3_scale = { 3, { 0.0041854730807244778, 0.0033028016332536936, 0.0033275971654802561, } };
const TfArray<3, int> quant3_zero = { 3, { 0,0,0 } };
const TfLiteAffineQuantization quant3 = { (TfLiteFloatArray*)&quant3_scale, (TfLiteIntArray*)&quant3_zero, 0 };
const ALIGN(16) int32_t tensor_data4[32] = { 255, 106, 75, -241, -28, 0, -114, 24, 1, 829, -5, 1180, -306, -90, -542, -13, -114, -386, 1598, -274, -223, 3, -525, 79, -333, 1217, -396, -262, 1732, 134, -144, 1388, };
const TfArray<1, int> tensor_dimension4 = { 1, { 32 } };
const TfArray<32, float> quant4_scale = { 32, { 4.4243141019251198e-05, 4.2663181375246495e-05, 4.1039300413103774e-05, 4.3672644096659496e-05, 4.3072803237009794e-05, 6.2338353018276393e-05, 4.0990580600919202e-05, 4.2249441321473569e-05, 5.1923827413702384e-05, 5.4578824347117916e-05, 4.4225645979167894e-05, 6.6616696130950004e-05, 4.5674223656533286e-05, 4.5056254748487845e-05, 4.3573294533416629e-05, 4.4183092541061342e-05, 4.1699084249557927e-05, 4.2641713662305847e-05, 7.1632697654422373e-05, 4.3212101445533335e-05, 4.3155960156582296e-05, 4.5284348743734881e-05, 4.3878480937564746e-05, 4.7366836952278391e-05, 4.2077106627402827e-05, 5.8553414419293404e-05, 4.4013126171194017e-05, 4.0468941733706743e-05, 5.2407965995371342e-05, 4.699311830336228e-05, 4.038068072986789e-05, 5.8041496231453493e-05, } };
const TfArray<32, int> quant4_zero = { 32, { 0,0,0,0,0,0,0,0,0,0,0,0,0,0,0,0,0,0,0,0,0,0,0,0,0,0,0,0,0,0,0,0 } };
const TfLiteAffineQuantization quant4 = { (TfLiteFloatArray*)&quant4_scale, (TfLiteIntArray*)&quant4_zero, 0 };
const ALIGN(16) int8_t tensor_data5[32*1*1*96] = { 
  /* [0][0][][] */ -30,-53,108,8,75,-6,-80,-99,54,-106,-99,-1,77,13,-34,44,-50,-27,-78,-42,-60,-96,10,111,-110,16,83,-43,111,5,-19,-92,90,-61,-84,60,-110,-74,-106,37,77,-74,-101,101,39,-105,109,-15,25,-47,-26,100,-81,-54,-84,110,29,69,127,-108,-69,68,-36,49,-21,15,73,102,38,79,94,-102,107,-108,39,88,-96,18,-52,31,55,23,97,-2,-57,-32,-83,101,34,116,-5,-120,15,51,29,7, 
  /* [1][0][][] */ -61,23,-70,4,-24,81,41,-1,91,-109,-104,105,23,-18,25,70,103,-35,42,127,-50,-4,37,28,20,22,-36,108,1,13,107,-64,59,111,-8,15,43,65,-10,-63,-61,10,-21,-101,-35,41,-30,-59,-25,-95,111,66,13,93,-78,-51,27,90,53,84,-49,100,-80,-63,-54,38,79,35,104,31,-6,5,-110,100,-54,47,89,-48,-40,70,-77,89,-61,-112,33,118,-68,-64,78,85,85,27,88,87,33,-2, 
  /* [2][0][][] */ 39,48,-51,96,19,-65,91,100,-106,113,-40,124,78,-21,89,-108,-54,-31,57,49,-111,-15,120,21,22,78,108,20,-70,76,81,96,-76,-27,-101,-106,-59,94,117,-33,-127,-84,12,-4,-84,116,-33,-81,104,38,82,-101,-28,55,21,11,-77,89,-41,9,-30,120,-46,68,85,46,53,86,-85,72,8,-86,28,-78,51,39,-64,-20,4,17,37,-109,-21,-51,2,-105,-22,-39,86,115,-15,4,-57,-86,-57,-69, 
  /* [3][0][][] */ 72,-16,34,-21,-77,35,-111,29,49,3,64,1,103,98,67,1,98,97,-63,21,119,-88,-69,-115,-39,-103,-79,103,44,-91,84,4,-57,-38,-10,-32,-99,-27,31,51,-26,-89,-100,-8,65,28,-50,-87,65,-75,50,2,89,23,85,-92,-121,-117,-127,-63,-85,19,-32,75,39,-35,-62,-26,-45,-76,3,107,23,-117,37,-53,39,91,95,-74,-89,-113,45,95,26,43,-44,-116,-77,41,-7,-121,100,-98,-88,31, 
  /* [4][0][][] */ 58,89,-11,58,-23,-34,36,-5,68,78,-5,40,7,-26,-17,-64,-31,7,-75,28,117,-88,88,26,-51,10,70,-61,-54,59,-57,-52,84,127,35,-114,-71,2,-127,56,-43,-54,-70,-103,30,111,41,56,29,-41,-6,-61,-102,66,-89,26,45,-86,-18,19,26,-114,-32,-33,-23,56,3,-31,17,-100,-107,-70,-39,31,104,46,77,-23,-3,-64,11,-29,-88,-10,3,73,94,4,-107,-68,19,45,45,80,-87,-16, 
  /* [5][0][][] */ 73,-66,50,58,5,-78,20,40,73,-127,1,-50,34,69,22,17,41,39,-60,62,27,36,11,-17,-97,-39,-12,-63,35,11,10,-83,-27,3,-46,11,-92,-25,22,20,-60,-33,28,65,-30,18,26,-33,-73,79,23,20,19,11,24,-10,76,42,-37,-31,27,-64,32,-71,-31,68,-18,27,41,-6,79,-43,-29,32,-34,-51,10,-36,10,56,74,32,26,78,-58,57,-3,26,52,-69,81,54,-8,13,53,-62, 
  /* [6][0][][] */ 14,-43,126,78,-74,-62,-2,71,-17,-81,5,-92,84,55,121,-121,47,1,22,104,-85,-123,117,61,-27,-86,-10,-52,-26,-122,48,-83,-94,-127,-49,-105,5,39,-108,83,88,57,25,-15,-117,107,-96,-47,-88,21,-33,-72,76,-60,99,-31,5,-11,-57,121,-105,34,66,-72,-54,67,106,-53,87,-3,-111,-9,57,-69,-79,-38,-87,-101,-59,-27,34,-32,41,-31,-75,-93,-42,-102,85,96,110,16,-59,-69,75,-28, 
  /* [7][0][][] */ 122,59,-44,-38,-72,111,-17,-12,126,-12,-97,7,29,-82,44,75,47,23,-17,125,61,37,-5,88,-100,114,46,55,-85,117,-13,37,34,34,80,91,-127,93,-22,-22,100,-73,89,63,49,2,108,-114,58,-57,-108,-62,-38,101,18,36,122,-89,-26,-58,20,-40,81,-94,-62,-55,70,29,-117,20,55,94,97,32,54,56,-57,53,-98,42,96,-27,-14,-68,91,36,-108,97,89,9,64,67,-47,-57,4,-66, 
  /* [8][0][][] */ 17,19,-42,-71,30,23,-59,-20,9,-2,39,73,16,-32,-72,-63,-60,82,-69,20,33,-19,67,92,-127,85,41,62,-56,21,-71,93,85,-21,47,-11,79,6,-29,65,70,89,-89,-103,-13,-19,-16,92,20,-68,-45,3,-65,3,-26,-83,44,98,-90,86,103,9,41,101,-24,-37,-17,90,-78,39,31,7,71,56,-5,15,-32,85,72,58,32,75,-84,-63,21,37,64,-33,38,-29,-75,81,-58,-92,-32,48, 
  /* [9][0][][] */ -2,5,118,58,68,-69,-21,-67,49,52,5,68,-50,-49,-52,-1,32,3,-55,-46,-3,98,-70,-63,120,7,3,46,16,-49,-56,80,37,-3,27,-18,-20,14,9,-24,42,-46,57,-45,77,20,-82,61,41,2,-84,-44,91,-72,-36,89,57,-54,17,12,-78,127,39,-52,-69,22,105,43,-8,100,81,-78,5,74,-52,-52,-69,-74,-17,90,40,13,68,25,-14,-69,43,-5,77,37,2,85,80,33,49,-15, 
  /* [10][0][][] */ -58,68,83,-61,-18,90,107,14,44,6,24,-77,75,87,-38,11,-42,84,-112,-51,-12,29,55,-69,2,62,-110,-112,-55,86,-86,-82,92,106,127,60,-61,10,-46,40,-32,117,-108,-47,-99,-53,-1,-59,1,0,40,17,47,34,-65,-29,-95,-12,0,-44,10,41,109,61,122,-75,-95,-17,10,-24,-102,-58,94,70,-89,100,-7,59,67,16,78,9,59,108,-97,68,101,-24,41,11,-28,-73,-42,-71,-38,-66, 
  /* [11][0][][] */ 72,30,11,80,119,31,54,33,81,127,-29,82,-35,-41,57,-9,1,-48,66,14,16,72,41,-48,-8,-55,4,54,68,-6,30,19,-57,-37,46,46,17,69,11,-32,5,81,-30,47,-1,-23,-38,-40,57,62,67,54,-17,-45,22,16,-25,-34,-10,-22,-66,106,62,8,73,91,-11,20,96,62,-41,-47,35,80,-10,52,-30,55,-14,64,-59,-13,-61,-29,56,-34,26,17,-64,23,34,-30,-56,8,-19,16, 
  /* [12][0][][] */ 5,63,-58,-8,97,0,-41,27,-80,74,-21,12,-47,4,39,-81,-100,-39,-45,-83,17,-18,9,84,-32,-55,85,-101,79,5,-42,105,-90,-75,-53,15,-1,-78,-15,31,101,30,-112,-41,-25,-85,-44,102,-49,-120,-79,91,32,-9,-84,73,-26,-64,57,55,46,127,-12,38,96,24,-51,101,47,89,32,59,70,101,-20,-12,-42,27,-118,-94,-62,89,35,5,-41,23,42,101,-96,-110,81,37,87,-14,18,64, 
  /* [13][0][][] */ 117,-54,90,92,65,113,79,66,65,-127,15,-31,122,68,59,-58,-109,-73,-80,19,76,-24,111,-41,-82,46,2,17,-78,-93,73,28,42,98,-15,40,-97,-28,15,73,-58,78,-50,9,-49,27,2,-22,38,109,-21,-103,-104,26,93,-68,-38,46,-14,-74,-20,92,-57,-9,-55,-63,-87,96,-40,-18,112,10,-81,22,-85,-43,-96,61,82,-57,51,-86,104,22,-84,-93,91,111,0,-52,-69,48,115,-51,65,-11, 
  /* [14][0][][] */ -59,-106,73,55,67,-39,-29,-122,-90,-44,56,70,-29,-90,-103,-96,-64,-71,2,17,-51,20,-14,47,-122,-81,-47,18,-124,-121,-87,28,92,-33,-44,-1,82,106,28,-121,-16,-123,29,76,55,-118,57,-94,102,32,76,45,84,-23,-27,2,-59,3,49,85,-17,-92,-32,63,-98,-25,63,-114,-95,-95,-98,83,-6,71,40,-85,44,-118,41,24,33,-25,-122,-44,-127,-100,-120,95,99,-3,75,-54,80,90,-19,61, 
  /* [15][0][][] */ 17,-37,-31,77,104,-88,64,-110,67,-7,-67,4,62,14,-89,-104,78,20,-88,36,51,20,73,105,56,78,46,88,9,70,74,-94,15,19,-49,-16,-80,116,106,-61,21,116,-44,-33,25,-69,-38,-83,-3,-84,-1,42,-98,-81,-47,-3,69,47,-66,111,-27,-92,-4,127,-20,98,-68,0,-57,9,35,-66,29,-1,60,-109,10,53,106,71,-74,68,-107,-52,-112,-32,-85,40,87,75,-123,-37,65,98,-94,114, 
  /* [16][0][][] */ -59,7,101,-61,17,121,-53,49,45,32,-106,73,27,-52,-57,-73,116,74,62,59,127,84,-41,59,-40,64,-73,67,-95,5,35,8,-106,76,63,69,-49,54,-60,-62,24,-42,75,93,59,105,109,-5,-55,-99,19,108,-50,113,64,59,32,113,72,10,122,95,52,40,48,11,-36,110,39,97,-10,3,35,82,48,89,-10,100,-108,-8,15,-82,76,13,6,107,107,8,92,11,-9,114,78,-30,-86,22, 
  /* [17][0][][] */ 27,-116,23,76,-46,-122,-75,-104,37,-81,78,44,92,54,-123,45,24,45,103,109,-103,-21,5,-60,54,57,-87,18,100,-59,-41,74,-43,-32,23,3,-56,94,-92,-39,-104,-50,-24,-15,1,6,79,-119,78,95,-22,19,-25,70,95,-83,-127,79,-89,-122,24,-101,66,85,-93,-81,36,-113,-114,-12,103,21,8,-125,-76,59,111,-57,35,-62,2,-23,-86,-102,-122,65,74,-40,12,71,-105,-120,-21,91,6,8, 
  /* [18][0][][] */ -72,96,109,-4,20,-49,-38,28,11,93,-38,5,-62,41,100,2,56,-10,56,-19,53,8,35,-8,73,-59,12,85,37,-4,10,64,2,-23,-81,-37,47,30,30,39,-8,17,2,56,-20,25,25,18,8,-27,16,5,-29,-37,43,57,-55,-6,22,-55,37,127,-11,-12,-66,-13,22,41,81,-6,-46,59,-66,-25,-25,-20,24,66,18,-31,-25,-24,-33,-47,95,-2,56,82,-72,-15,16,88,34,16,31,28, 
  /* [19][0][][] */ 18,34,75,38,94,-89,92,90,91,-59,26,-6,-95,30,-57,61,69,-106,111,55,-25,77,-57,10,127,-80,26,-67,-93,-119,-66,44,79,-84,29,15,10,-71,-54,-102,41,-116,-83,8,-87,27,73,-95,-29,35,-43,41,-32,11,4,-12,18,96,-1,-28,50,9,95,60,-71,-5,-28,-4,-14,53,70,-52,-65,-120,-58,-80,-26,-113,12,121,54,-116,-33,75,-88,-10,7,-7,85,26,-5,63,-36,112,65,-50, 
  /* [20][0][][] */ -15,61,64,89,-58,91,16,48,14,57,-90,1,-28,85,36,-65,-55,-26,-62,-15,18,-48,-76,-74,87,-76,-101,39,16,43,-36,124,107,50,-13,46,45,-28,-11,-114,-82,-37,-91,-107,-24,-64,-68,98,60,-127,-104,52,50,127,47,-7,95,64,88,91,108,-51,-71,6,-8,-67,-55,5,-78,-71,-79,73,-64,-61,49,12,109,75,105,99,84,7,76,-25,60,112,-19,74,15,96,23,72,21,27,-3,10, 
  /* [21][0][][] */ 94,59,60,-94,83,-76,72,4,3,-83,-67,31,1,42,-55,-88,-106,-22,4,-4,108,-46,66,-80,21,-71,-27,66,6,14,-2,-26,17,28,-75,-120,83,96,-127,-25,-4,11,27,-25,-99,-75,-73,87,-18,-65,0,90,17,80,-96,30,-44,55,-75,113,64,-109,16,10,85,28,-35,-60,-118,-8,50,82,41,-12,59,57,-97,-32,61,94,15,104,39,-61,24,-89,63,-80,-92,76,85,-118,-33,-99,70,-32, 
  /* [22][0][][] */ 19,-66,-83,-103,79,-60,96,43,-101,72,-86,-112,109,-121,-125,-95,26,73,-110,-64,75,-84,19,19,79,-15,-122,91,-69,-77,-76,-118,57,48,11,0,-9,-28,-71,-123,-10,-24,-10,81,43,-127,78,-34,-66,-82,-3,-29,-72,-102,-59,22,-25,-41,-29,-42,97,-87,-87,-122,-77,7,-123,-52,98,90,-36,-14,-77,-4,51,-101,37,-63,52,81,94,-107,-85,-126,66,71,85,-43,-66,20,-70,57,9,9,-40,86, 
  /* [23][0][][] */ 50,-68,4,46,81,-99,4,-103,46,-55,76,64,31,-103,20,-44,86,-29,-115,106,85,-76,95,-29,0,-15,75,18,67,53,62,-16,-25,39,18,47,97,-5,-127,1,-94,-1,1,-95,-60,-85,100,25,79,-95,-73,-41,66,-56,-36,86,-60,-21,93,36,-107,-82,-34,-13,35,34,-107,-103,47,-24,112,-65,-8,-27,-14,-88,51,-18,85,109,-48,-53,24,-100,84,6,97,-17,-80,43,98,28,91,-38,-26,70, 
  /* [24][0][][] */ -86,-58,-114,-78,-92,-119,-78,-101,61,113,77,40,112,56,-48,-127,-91,36,20,-58,91,-90,-65,-46,47,-36,68,52,102,53,-4,-70,-2,2,45,22,-62,-95,59,-28,-83,-109,98,-3,14,-45,38,67,-94,-53,-27,10,65,54,65,-82,-12,73,23,-7,86,-13,32,89,-104,92,-55,-98,-110,46,-65,-34,-46,35,90,96,58,-85,-115,-91,-89,-102,-71,-125,-5,58,-21,-108,20,-118,1,-81,-25,24,-101,25, 
  /* [25][0][][] */ -48,-5,-22,9,74,-32,-60,79,39,-50,-6,38,51,5,-22,1,-16,44,39,-87,50,85,12,-10,56,-49,-69,42,78,-88,35,120,61,-83,15,81,122,-33,4,-11,-46,82,-61,53,113,45,66,54,-69,67,-47,-4,58,-32,-6,17,-14,37,-31,67,71,86,37,2,-13,87,12,-7,-34,19,7,-85,21,-85,73,49,38,82,25,38,44,32,-35,58,-35,-20,-63,-43,-18,-14,127,61,-95,33,-21,-29, 
  /* [26][0][][] */ 59,-117,-38,-25,-101,0,-15,-18,-113,-88,100,67,-12,-52,2,-20,108,29,-90,-64,17,63,94,9,44,62,7,31,8,16,-95,-1,-18,-60,-91,-100,-73,85,-26,101,-96,96,53,24,-75,68,-37,97,-22,31,7,103,0,-39,-9,-106,105,77,39,26,0,-106,80,-17,127,-24,-63,54,-80,79,99,99,76,-91,-64,-6,48,-109,-98,0,-29,78,86,-75,72,0,-49,12,-78,109,-6,18,-49,116,49,84, 
  /* [27][0][][] */ 8,6,-69,-112,-115,-77,-78,-21,41,103,35,-115,-31,56,83,-35,66,-21,92,-91,-103,8,-34,-29,-95,45,-118,-4,66,27,-38,-14,61,69,-100,-93,-97,-73,-122,89,-104,15,26,15,100,22,68,105,91,70,59,-83,-95,-95,-10,-40,104,-30,-102,-87,-64,-53,-40,56,39,-53,-122,107,51,9,-127,5,61,-59,-11,-95,47,-73,89,105,86,-32,119,-63,-82,-92,-38,29,-55,-8,-41,-57,55,15,88,57, 
  /* [28][0][][] */ 65,17,119,69,-45,-32,-47,-26,-10,-17,76,95,-104,-51,60,120,127,98,-31,56,-34,54,-58,-18,-36,62,-42,-16,-18,-57,9,39,-93,12,78,70,81,-81,14,36,97,45,-62,97,-58,4,13,67,23,-47,-89,-20,-16,0,82,25,60,-21,97,74,-26,26,-85,6,55,109,24,69,-29,49,-70,-52,63,44,42,-36,-80,-11,-45,51,-44,-80,64,-31,87,-73,75,-28,-95,-14,20,34,-50,82,-59,-33, 
  /* [29][0][][] */ 42,61,68,-47,-50,23,-104,13,89,14,-80,-71,88,-96,-34,-34,-77,93,57,-60,-73,-26,56,10,6,2,-37,-10,-80,-9,94,1,42,-3,-77,-37,19,92,9,84,44,97,-39,85,8,94,-51,-19,17,1,48,-89,89,-100,107,40,-85,43,-21,104,-115,127,-87,-53,-61,-54,54,77,105,-69,35,-72,97,73,77,35,102,-47,-25,37,-4,-81,-12,-75,62,108,40,73,-38,90,85,76,-100,29,-5,63, 
  /* [30][0][][] */ 28,-74,-71,35,-105,24,-73,-18,119,-18,-5,-46,-107,18,56,11,-8,35,98,-110,42,-111,-123,10,-119,22,-78,120,-15,-115,-101,5,-89,-77,-127,-60,13,-22,-7,22,91,-84,-17,101,105,-48,107,59,-77,79,18,-111,99,-55,-15,104,-86,-59,-87,-60,-111,-6,-80,-30,-115,-96,-104,94,-66,113,50,-38,-95,108,39,-95,-63,-79,-84,-64,28,28,-112,-24,-117,26,-116,113,-42,-127,80,57,-36,-6,8,-76, 
  /* [31][0][][] */ 71,-29,68,98,69,58,-18,-32,-8,36,-31,-36,70,-70,14,113,-4,-48,66,34,52,58,9,114,84,-85,52,53,-26,-49,51,115,16,23,-67,28,127,-1,1,-75,69,-32,7,73,41,-19,-7,44,65,14,80,-7,-34,-48,-32,28,-68,52,26,116,-41,52,81,-64,76,118,1,-57,79,-33,-62,11,-68,-14,42,42,-37,5,60,91,-38,-22,38,58,72,98,-48,43,16,-9,-23,-7,14,118,10,41, 
};
const TfArray<4, int> tensor_dimension5 = { 4, { 32,1,1,96 } };
const TfArray<32, float> quant5_scale = { 32, { 0.0018803335260599852, 0.0018131851684302092, 0.0017441702075302601, 0.001856087357737124, 0.0018305940320715308, 0.0026493798941373825, 0.0017420996446162462, 0.0017956012161448598, 0.0022067625541239977, 0.0023195999674499035, 0.0018795898649841547, 0.002831209683790803, 0.0019411544781178236, 0.0019148908322677016, 0.001851864974014461, 0.0018777814693748951, 0.001772211049683392, 0.0018122728215530515, 0.0030443896539509296, 0.0018365143332630396, 0.0018341282848268747, 0.0019245847361162305, 0.001864835387095809, 0.0020130905322730541, 0.0017882769461721182, 0.0024885199964046478, 0.0018705578986555338, 0.0017199299763888121, 0.0022273384965956211, 0.0019972075242549181, 0.0017161788418889046, 0.0024667636025696993, } };
const TfArray<32, int> quant5_zero = { 32, { 0,0,0,0,0,0,0,0,0,0,0,0,0,0,0,0,0,0,0,0,0,0,0,0,0,0,0,0,0,0,0,0 } };
const TfLiteAffineQuantization quant5 = { (TfLiteFloatArray*)&quant5_scale, (TfLiteIntArray*)&quant5_zero, 0 };
const ALIGN(16) int32_t tensor_data6[96] = { -2280, 2786, 8854, 2555, -2797, -3611, 19006, 2604, 2678, -1533, 9480, -248, -7696, 2327, 12385, 6445, 11472, 5465, -3809, -5844, 4322, 34892, 14289, 21807, 1503, 755, 4581, 3041, 1796, -4815, 8074, -2676, -247, 3848, 53, 902, 7994, 4135, -1878, 5299, 7725, 6743, 3990, 11878, 2816, 4546, 1844, 7995, 4077, -5109, -5996, 446, -203, -1070, 2080, -22, 186, -942, -3728, 11203, -1013, 1553, -1344, -2507, -3046, 8667, 21148, 1917, -2065, 664, 1050, 2505, 1302, -915, 606, 9067, -547, 11302, 18786, -791, 8064, 1644, -566, 1398, 12904, 8932, 4206, 1613, 6159, 3640, -419, -7935, 751, -1649, -1819, -2109, };
const TfArray<1, int> tensor_dimension6 = { 1, { 96 } };
const TfArray<96, float> quant6_scale = { 96, { 0.00027167514781467617, 0.00056159490486606956, 0.00027225786470808089, 0.0003414216625969857, 0.0003891520609613508, 0.00040900640306062996, 0.00017426692647859454, 0.00027305813273414969, 0.00022948537662159652, 0.00035375566221773624, 0.00020694632257800549, 0.00030471428181044757, 0.0003282712132204324, 0.001184397260658443, 0.0002496018132660538, 0.00018372788326814771, 0.00016309886996168643, 0.00026588025502860546, 0.000503336894325912, 0.0002902493579313159, 0.0001434685691492632, 7.8222066804300994e-05, 0.00021489060600288212, 7.6656237069983035e-05, 0.00017985535669140518, 0.00064731575548648834, 0.00064747699070721865, 0.00035744882188737392, 0.00028391927480697632, 0.00040587608236819506, 0.00018351597827859223, 0.0002828883589245379, 0.00020447904535103589, 0.00030089530628174543, 0.00047667164471931756, 0.00029104287386871874, 0.00024432764621451497, 0.00026244527543894947, 0.00029002878000028431, 0.00033133511897176504, 0.00016600247181486338, 0.00038568524178117514, 0.00038167316233739257, 0.00019751890795305371, 0.00068729626946151257, 0.00022240575344767421, 0.00027113570831716061, 0.00026918022194877267, 0.00033305221586488187, 0.00025240861577913165, 0.00026738707674667239, 0.00017597487021703273, 0.00057505926815792918, 0.00028862216277047992, 0.00038184048025868833, 0.00047261288273148239, 0.00055303965928032994, 0.00029826973332092166, 0.00040537310997024179, 0.00016620484529994428, 0.00075737264705821872, 0.00048651397810317576, 0.00020117269014008343, 0.00032018017373047769, 0.00061578425811603665, 0.00022963144874665886, 0.00010334423132007942, 0.00020359491463750601, 0.00054798700148239732, 0.00047185219591483474, 0.00036262109642848372, 0.00018805635045282543, 0.0010333539685234427, 0.00045803445391356945, 0.00031449855305254459, 0.00023902649991214275, 0.00025420315796509385, 0.00016616935317870229, 9.7079842817038298e-05, 0.00022589384752791375, 0.00018127646762877703, 0.00020130773191340268, 0.00017891563766170293, 0.0001654538355069235, 0.00014426020788960159, 0.00026612478541210294, 0.00055370049085468054, 0.00017667464271653444, 0.00011428938887547702, 0.00056482781656086445, 0.00020028561993967742, 0.00025020958855748177, 0.00025887769879773259, 0.00062483933288604021, 0.00035286150523461401, 0.00019571390294004232, } };
const TfArray<96, int> quant6_zero = { 96, { 0,0,0,0,0,0,0,0,0,0,0,0,0,0,0,0,0,0,0,0,0,0,0,0,0,0,0,0,0,0,0,0,0,0,0,0,0,0,0,0,0,0,0,0,0,0,0,0,0,0,0,0,0,0,0,0,0,0,0,0,0,0,0,0,0,0,0,0,0,0,0,0,0,0,0,0,0,0,0,0,0,0,0,0,0,0,0,0,0,0,0,0,0,0,0,0 } };
const TfLiteAffineQuantization quant6 = { (TfLiteFloatArray*)&quant6_scale, (TfLiteIntArray*)&quant6_zero, 0 };
const ALIGN(16) int8_t tensor_data7[96*1*1*16] = { 
  /* [0][0][][] */ -22,101,-7,-127,-43,-38,-43,-61,-23,8,-7,75,23,-55,7,61, 
  /* [1][0][][] */ -29,26,-60,6,-27,-29,18,-89,59,49,-49,15,6,-6,38,-127, 
  /* [2][0][][] */ 15,4,-48,26,63,7,-65,-51,127,-51,-21,20,-19,110,-81,34, 
  /* [3][0][][] */ 39,-78,19,-104,25,-15,8,-10,127,12,90,54,-18,54,-2,111, 
  /* [4][0][][] */ -87,63,26,35,31,-13,6,53,12,17,24,-13,-127,-6,-30,15, 
  /* [5][0][][] */ 14,90,116,-7,18,78,-93,104,-75,69,-43,-45,48,-61,-127,37, 
  /* [6][0][][] */ 35,-57,110,-112,27,-15,-71,92,-86,-127,54,-46,13,80,12,110, 
  /* [7][0][][] */ 32,127,-31,-60,78,10,10,-20,123,96,-35,27,22,-25,73,44, 
  /* [8][0][][] */ 18,-87,3,-90,20,-64,9,-72,21,54,68,-14,21,127,92,69, 
  /* [9][0][][] */ 18,-46,-19,127,17,-41,30,-44,-102,95,10,-37,0,-96,-12,15, 
  /* [10][0][][] */ 3,34,-43,-127,20,1,-4,45,37,-35,6,-13,-22,-33,7,23, 
  /* [11][0][][] */ 16,22,26,-20,80,-31,75,-56,-77,29,-1,26,2,127,-60,-24, 
  /* [12][0][][] */ 45,4,-127,-10,24,-74,-5,31,8,28,-79,-53,-44,116,16,59, 
  /* [13][0][][] */ -14,16,-22,18,18,-127,3,25,13,-2,10,-1,9,-22,-1,-4, 
  /* [14][0][][] */ 19,-34,126,-34,90,24,-127,-125,-6,-35,55,34,-4,-72,-53,-62, 
  /* [15][0][][] */ -54,9,-13,-50,11,3,127,28,-21,42,71,-18,10,63,34,-8, 
  /* [16][0][][] */ 30,49,127,95,30,20,97,49,-75,14,-62,-7,-3,25,-7,-78, 
  /* [17][0][][] */ -34,-102,-20,26,-68,-28,-66,20,-127,-37,8,-50,1,38,68,-31, 
  /* [18][0][][] */ -4,30,9,52,29,8,23,-9,66,40,-17,-14,12,127,59,16, 
  /* [19][0][][] */ 22,-14,35,9,104,13,-127,-51,-100,-93,-47,-127,-31,-32,13,-24, 
  /* [20][0][][] */ 82,-13,-69,-31,6,-127,-5,36,-31,18,-94,-26,32,-8,43,21, 
  /* [21][0][][] */ 104,-11,81,-42,20,11,61,96,20,-86,75,78,-24,127,33,53, 
  /* [22][0][][] */ -11,45,-49,127,-63,-8,56,80,-19,9,-33,18,8,10,51,21, 
  /* [23][0][][] */ 107,11,105,-107,58,-39,-59,58,6,-14,-45,-40,8,-15,-127,57, 
  /* [24][0][][] */ -127,47,9,-34,-13,90,27,-12,-10,4,115,-10,-71,18,71,-5, 
  /* [25][0][][] */ 28,24,6,18,5,4,54,-41,-6,-127,-17,-18,-6,-25,28,27, 
  /* [26][0][][] */ -40,3,2,12,-49,-5,-34,-37,-102,-31,2,-27,7,127,-33,46, 
  /* [27][0][][] */ -1,27,7,64,37,-31,-19,-36,53,2,-27,-8,6,127,-12,18, 
  /* [28][0][][] */ 9,65,65,63,127,1,42,22,-73,-9,-36,-18,10,81,29,-44, 
  /* [29][0][][] */ -4,-6,3,15,22,-5,-8,33,-29,-12,-14,-127,5,-15,-11,16, 
  /* [30][0][][] */ -24,76,-41,67,-32,-10,46,-127,-35,59,-9,4,48,35,64,68, 
  /* [31][0][][] */ -47,-30,-6,-69,-12,4,-41,-118,20,82,-12,-127,-42,-50,-4,14, 
  /* [32][0][][] */ -127,-81,-19,60,43,27,-27,9,-14,-57,-116,35,80,-8,75,91, 
  /* [33][0][][] */ -4,-32,-32,-8,-86,-18,-97,13,58,9,3,-63,39,-108,127,44, 
  /* [34][0][][] */ 47,-10,55,20,36,11,-51,69,-83,-50,58,14,16,-11,-8,127, 
  /* [35][0][][] */ -43,46,-85,10,-22,-30,23,-127,78,90,-105,-4,9,-11,78,-118, 
  /* [36][0][][] */ -13,8,-3,112,14,5,127,-16,-17,48,-27,-23,-17,-2,-94,-39, 
  /* [37][0][][] */ -3,-22,17,-59,-9,-11,-58,-53,-89,-20,13,-27,16,-127,69,-23, 
  /* [38][0][][] */ 39,107,-12,-73,127,-4,24,-23,110,64,-18,2,35,-31,58,24, 
  /* [39][0][][] */ -21,79,-7,-127,-2,11,-50,38,54,-85,-36,-8,8,89,43,29, 
  /* [40][0][][] */ 5,-28,8,-95,-1,-27,-6,-54,-127,-11,-7,-34,-5,-121,82,-54, 
  /* [41][0][][] */ -1,-18,-49,-21,2,-40,13,-1,-36,11,-55,-17,-127,4,30,40, 
  /* [42][0][][] */ 127,85,-21,-28,-65,-54,-19,-38,-1,17,68,-42,-50,49,96,-101, 
  /* [43][0][][] */ 1,123,-70,-20,72,-13,127,-22,70,54,-62,16,13,-106,-98,-75, 
  /* [44][0][][] */ -13,-23,17,-39,59,2,-75,-127,-22,-6,3,-1,-3,-37,33,-62, 
  /* [45][0][][] */ -13,57,-127,-60,38,-57,40,-74,25,42,9,-60,18,-18,57,-41, 
  /* [46][0][][] */ 16,7,-26,-100,-7,10,22,-25,-119,-28,1,25,-14,-127,79,-31, 
  /* [47][0][][] */ 25,46,19,-19,127,-23,-36,21,-68,38,-11,13,8,-11,118,-23, 
  /* [48][0][][] */ -127,-75,-13,39,57,21,11,-26,-3,-13,-91,26,56,10,67,46, 
  /* [49][0][][] */ 21,16,96,62,122,-7,45,46,-127,-49,-42,-65,19,124,16,-57, 
  /* [50][0][][] */ 42,-15,-85,-22,50,-127,-21,-21,-19,-16,-9,-38,26,-13,-36,-12, 
  /* [51][0][][] */ 7,28,30,12,14,-12,-15,18,-127,48,5,-107,10,-117,-8,100, 
  /* [52][0][][] */ -2,45,12,54,37,9,25,25,73,87,-16,-37,29,127,71,12, 
  /* [53][0][][] */ 8,-42,-16,-10,-85,-21,-96,8,38,11,-3,-70,29,-118,127,38, 
  /* [54][0][][] */ 43,-15,-37,13,127,86,-101,-48,-72,-6,-27,-66,-6,-39,-26,-49, 
  /* [55][0][][] */ 38,-16,15,8,46,-29,-57,-127,-26,-56,-46,15,-10,-19,1,-18, 
  /* [56][0][][] */ -13,13,20,-25,-12,-33,-108,68,-16,127,-11,-22,33,3,7,19, 
  /* [57][0][][] */ 6,30,-47,-22,-47,-51,125,99,-24,24,-21,4,23,39,127,-10, 
  /* [58][0][][] */ 21,4,-127,36,75,99,-22,42,-85,-31,17,17,-45,10,2,-25, 
  /* [59][0][][] */ -119,66,117,31,-91,-73,125,127,16,6,41,-31,23,6,74,4, 
  /* [60][0][][] */ 11,2,-62,9,29,-127,-37,7,-7,-18,-25,-23,31,-27,-1,13, 
  /* [61][0][][] */ 24,-24,30,127,64,17,19,-2,-110,-9,14,59,-19,38,37,-57, 
  /* [62][0][][] */ -40,127,10,-52,-36,-17,-81,61,-27,-75,-96,-58,-5,-88,-44,-28, 
  /* [63][0][][] */ -40,32,-27,127,-74,11,-67,-27,-60,-28,-30,-37,20,65,42,44, 
  /* [64][0][][] */ 0,2,5,43,1,13,-13,61,26,8,-15,-38,-10,-127,47,-3, 
  /* [65][0][][] */ -13,-58,21,-127,52,-18,76,-49,10,50,26,-90,-20,6,0,-72, 
  /* [66][0][][] */ 18,-18,74,-12,15,19,22,69,23,-49,58,41,-1,127,-10,50, 
  /* [67][0][][] */ 8,61,-15,-127,-5,0,-50,42,84,-92,-38,-1,24,83,64,27, 
  /* [68][0][][] */ -29,39,127,11,7,8,2,4,-33,-16,-9,-30,10,-14,89,-33, 
  /* [69][0][][] */ 127,84,-12,-6,-77,-31,-14,-26,8,20,76,-44,-64,57,74,-92, 
  /* [70][0][][] */ 48,20,-59,-17,-21,22,46,127,-34,82,-47,12,9,67,-15,24, 
  /* [71][0][][] */ 2,-5,-10,13,-2,-86,0,19,-39,20,-72,-6,-127,-11,51,57, 
  /* [72][0][][] */ 13,27,-127,13,7,8,22,99,-40,-34,4,-9,26,27,6,16, 
  /* [73][0][][] */ -40,20,33,1,44,-43,-82,-127,17,-81,27,-16,17,-51,51,-8, 
  /* [74][0][][] */ -17,21,26,127,9,-10,-87,71,-71,13,-42,38,24,-125,31,-86, 
  /* [75][0][][] */ -5,22,-61,10,7,-18,4,-17,113,11,-19,-17,21,127,-43,15, 
  /* [76][0][][] */ -5,-17,2,22,6,-9,-6,53,18,-23,-14,-127,-8,-8,1,7, 
  /* [77][0][][] */ -2,42,-29,127,-60,8,66,110,0,28,-22,27,-9,-27,-2,3, 
  /* [78][0][][] */ 14,3,17,-121,39,-53,-72,40,12,-78,-7,-65,43,127,53,81, 
  /* [79][0][][] */ -4,-106,-87,-72,-98,-14,21,-88,127,9,35,55,27,34,63,-40, 
  /* [80][0][][] */ -20,22,83,-97,5,-54,-11,-69,-71,22,-67,-90,30,94,127,-16, 
  /* [81][0][][] */ -40,39,-124,27,61,-127,-22,46,-10,-51,55,-8,29,1,14,7, 
  /* [82][0][][] */ 127,0,-1,16,19,-101,-7,24,-12,-2,-102,3,95,10,-12,15, 
  /* [83][0][][] */ -27,91,-127,-103,-26,-19,61,-119,75,51,-56,-110,6,54,58,97, 
  /* [84][0][][] */ -40,6,74,-31,-4,-22,56,-127,-49,58,8,-71,40,42,30,-17, 
  /* [85][0][][] */ -80,127,21,-127,-82,-40,-36,-1,-64,-8,-74,16,11,-17,-91,-20, 
  /* [86][0][][] */ -2,7,-32,-3,-20,-33,127,30,4,-30,-6,14,9,35,85,-17, 
  /* [87][0][][] */ -28,-36,5,-125,12,-33,59,-17,-3,24,-11,-127,-25,3,6,-49, 
  /* [88][0][][] */ 101,6,25,-21,14,-123,-13,24,-35,12,-109,-38,36,39,127,39, 
  /* [89][0][][] */ 16,-31,-36,-44,19,-6,-25,-17,-48,9,43,-79,127,0,27,-45, 
  /* [90][0][][] */ -6,-54,41,-51,66,3,-63,79,64,-77,-33,-21,-20,114,8,-127, 
  /* [91][0][][] */ -51,-8,-21,-40,16,-11,-26,-106,16,65,-3,-127,-36,-12,8,5, 
  /* [92][0][][] */ -23,26,43,16,4,-127,17,1,0,-19,-7,-13,-1,-25,22,2, 
  /* [93][0][][] */ 35,-23,127,-9,-48,57,40,-37,-18,32,-64,-17,-27,4,25,-2, 
  /* [94][0][][] */ 32,11,-9,-26,32,0,-11,6,-25,-22,16,-56,127,-18,34,-41, 
  /* [95][0][][] */ 127,108,5,41,-87,-8,-58,-7,-21,-9,97,-41,-48,32,70,-84, 
};
const TfArray<4, int> tensor_dimension7 = { 4, { 96,1,1,16 } };
const TfArray<96, float> quant7_scale = { 96, { 0.00074769265484064817, 0.0015455973334610462, 0.00074929639231413603, 0.00093964597908779979, 0.0010710075730457902, 0.0011256497818976641, 0.00047960993833839893, 0.00075149879558011889, 0.00063157978001981974, 0.00097359111532568932, 0.00056954874889925122, 0.00083862151950597763, 0.00090345391072332859, 0.0032596471719443798, 0.00068694335641339421, 0.00050564797129482031, 0.00044887370313517749, 0.00073174422141164541, 0.0013852621195837855, 0.00079881178680807352, 0.00039484802982769907, 0.00021527940407395363, 0.00059141265228390694, 0.00021096999989822507, 0.00049499014858156443, 0.0017815146129578352, 0.0017819582717493176, 0.00098375522065907717, 0.00078139040851965547, 0.0011170346988365054, 0.00050506478874012828, 0.00077855319250375032, 0.00056275841780006886, 0.00082811107859015465, 0.0013118751812726259, 0.00080099562183022499, 0.00067242799559608102, 0.00072229059878736734, 0.00079820473911240697, 0.00091188622172921896, 0.00045686485827900469, 0.0010614662896841764, 0.0010504244128242135, 0.00054360303329303861, 0.0018915472319349647, 0.0006120955222286284, 0.00074620801024138927, 0.00074082618812099099, 0.00091661198530346155, 0.00069466815330088139, 0.0007358912262134254, 0.00048431043978780508, 0.001582653378136456, 0.00079433346400037408, 0.0010508849518373609, 0.001300704781897366, 0.0015220518689602613, 0.00082088512135669589, 0.0011156504042446613, 0.00045742181828245521, 0.0020844084210693836, 0.0013389628147706389, 0.0005536588141694665, 0.00088118604617193341, 0.0016947349067777395, 0.00063198176212608814, 0.00028441954054869711, 0.00056032516295090318, 0.0015081461751833558, 0.0012986112851649523, 0.00099799013696610928, 0.00051756057655438781, 0.0028439522720873356, 0.0012605827068910003, 0.00086554937297478318, 0.00065783842001110315, 0.00069960701512172818, 0.00045732414582744241, 0.00026717895525507629, 0.00062169530428946018, 0.00049890129594132304, 0.00055403047008439898, 0.00049240392399951816, 0.00045535492245107889, 0.00039702674257569015, 0.00073241716017946601, 0.0015238706255331635, 0.00048623635666444898, 0.00031454232521355152, 0.0015544947236776352, 0.00055121746845543385, 0.00068861601175740361, 0.00071247201412916183, 0.0017196559347212315, 0.00097113021183758974, 0.00053863535868003964, } };
const TfArray<96, int> quant7_zero = { 96, { 0,0,0,0,0,0,0,0,0,0,0,0,0,0,0,0,0,0,0,0,0,0,0,0,0,0,0,0,0,0,0,0,0,0,0,0,0,0,0,0,0,0,0,0,0,0,0,0,0,0,0,0,0,0,0,0,0,0,0,0,0,0,0,0,0,0,0,0,0,0,0,0,0,0,0,0,0,0,0,0,0,0,0,0,0,0,0,0,0,0,0,0,0,0,0,0 } };
const TfLiteAffineQuantization quant7 = { (TfLiteFloatArray*)&quant7_scale, (TfLiteIntArray*)&quant7_zero, 0 };
const ALIGN(16) int32_t tensor_data8[16] = { -11385, 16115, -14931, 4079, -6656, 14300, 35512, -44862, -6140, 17153, 25159, 17970, -11770, 24576, -10507, 10717, };
const TfArray<1, int> tensor_dimension8 = { 1, { 16 } };
const TfArray<16, float> quant8_scale = { 16, { 0.00076487258775159717, 0.00045643196790479124, 0.00018998386804014444, 0.00026608523330651224, 0.00032273252145387232, 0.00032736812136135995, 0.00032221368746832013, 0.00034551447606645525, 0.00035266519989818335, 0.00023658234567847103, 0.00061742443358525634, 0.0006527251098304987, 0.00036716173053719103, 0.00022250173788052052, 0.00049943843623623252, 0.00060521368868649006, } };
const TfArray<16, int> quant8_zero = { 16, { 0,0,0,0,0,0,0,0,0,0,0,0,0,0,0,0 } };
const TfLiteAffineQuantization quant8 = { (TfLiteFloatArray*)&quant8_scale, (TfLiteIntArray*)&quant8_zero, 0 };
const ALIGN(16) int8_t tensor_data9[16*1*1*96] = { 
  /* [0][0][][] */ -15,-14,-6,-39,18,-5,-39,6,12,7,-6,6,-2,-7,-32,5,2,10,-14,1,8,-40,5,2,11,20,-5,127,35,-31,50,-7,0,7,3,0,-11,12,-26,1,-15,7,5,40,11,12,20,1,30,-8,7,22,13,-24,-11,84,22,3,-26,-40,-6,25,8,-20,-43,-60,-9,40,14,10,16,-16,-6,-42,-2,-9,-28,28,-10,9,-9,-20,30,24,0,-7,-8,-80,6,-6,9,0,47,-36,-40,-3, 
  /* [1][0][][] */ 24,-79,-81,-71,127,-13,62,55,-27,-96,-50,-10,8,-8,-61,22,-62,16,31,54,27,18,-30,-61,8,6,-28,-60,21,-13,-36,25,-35,30,6,7,8,0,31,24,-33,33,-47,-5,-38,92,26,21,30,-81,46,-9,-28,39,43,21,-21,-23,-50,-45,21,-17,5,-33,-78,97,-8,-17,8,-22,-22,18,49,-126,-39,24,30,-35,27,2,16,-22,38,-4,-54,47,-15,62,37,-26,-4,1,27,4,33,125, 
  /* [2][0][][] */ 22,61,-99,-7,57,111,34,62,-2,-115,-2,-10,6,7,36,61,23,-19,-48,65,17,29,99,23,62,36,5,-60,45,-33,64,-68,38,74,-33,36,-127,-89,39,4,7,-32,20,-7,66,-45,6,64,-23,28,-51,-55,111,-8,-14,43,11,20,47,9,28,32,21,-25,12,8,-20,-20,-63,-33,-15,-50,-15,-75,11,67,46,36,30,-14,23,-68,8,9,-29,20,30,40,-21,20,19,-22,10,-46,-62,-16, 
  /* [3][0][][] */ 60,6,109,13,32,-14,18,-33,-6,-66,14,-48,7,20,47,81,26,-11,40,-5,120,12,50,23,27,-22,-2,14,26,12,-39,53,-96,33,22,-1,-20,-34,-18,18,-58,-25,67,18,40,43,-40,-85,-46,-8,-88,14,15,-109,1,17,-127,75,39,42,12,60,-40,-48,26,58,-3,-65,4,-30,9,-55,46,2,38,-24,-6,-24,59,47,-29,-82,12,14,-15,-1,10,30,15,-4,13,17,24,102,54,-53, 
  /* [4][0][][] */ 56,-12,23,-27,123,81,5,-47,-69,-71,-51,-18,-57,25,-3,101,45,-127,-71,105,-31,33,58,-39,15,14,10,-74,25,-22,96,-49,116,42,-54,6,46,6,38,13,-23,-5,-27,-13,45,-94,-4,7,61,1,-59,36,-18,-59,-9,-58,34,-2,-35,46,2,100,63,63,62,70,-5,-20,-68,-22,77,75,60,-83,-49,-26,2,60,96,-56,-17,-52,21,8,-78,12,79,97,-54,47,9,-56,13,3,27,-24, 
  /* [5][0][][] */ 24,-10,-24,0,-5,-2,33,-36,-28,-44,-15,24,7,20,-2,34,-1,-7,15,-14,32,29,-25,54,17,8,15,-113,-4,13,28,22,-15,22,1,-68,29,17,13,-2,-10,1,28,-10,22,-22,15,-18,-8,-19,1,-29,3,-32,-8,-55,-5,22,-12,11,57,24,-2,46,-12,56,17,55,-1,71,16,21,31,20,-11,51,-46,-18,4,-9,-4,-19,11,30,5,12,-1,127,0,23,3,-11,15,-2,-61,14, 
  /* [6][0][][] */ 26,-87,3,-53,-57,11,39,19,1,-12,-12,-49,-38,5,-34,26,34,-13,-18,-1,-29,47,5,1,-9,23,-27,-24,-16,5,64,-15,49,1,53,-5,-12,-9,52,-100,-25,96,7,-30,42,-37,5,36,-10,28,-11,90,-17,-67,-23,-28,20,-63,-18,-8,-15,70,35,-59,40,-34,26,-35,9,-10,127,-3,-25,-8,-18,35,-94,15,9,-9,42,39,41,-7,-20,15,61,66,31,1,63,-43,-13,-15,-37,5, 
  /* [7][0][][] */ -21,112,49,24,127,28,43,-16,-13,-34,26,-29,-35,1,26,-6,-4,-15,9,28,30,-61,22,19,-28,-13,15,20,4,-6,2,9,25,-20,-32,18,29,25,-26,73,-37,18,1,3,-47,-3,-5,-19,-39,-20,28,-1,21,-32,-39,48,42,4,-33,3,-8,-48,-6,-15,-41,57,-37,-67,-10,-15,-13,56,-45,-29,2,8,62,45,43,-25,-40,-31,-20,-19,-26,36,-16,-20,-43,26,-46,-38,-43,1,34,2, 
  /* [8][0][][] */ 18,4,40,-4,-127,-4,39,-18,18,86,67,33,-3,29,20,33,-34,-3,0,2,-37,21,-96,54,31,-16,53,-23,13,11,13,56,81,7,-4,-17,-31,-19,28,37,13,-25,52,27,-5,-23,64,2,-87,4,31,49,-68,-41,-23,26,24,-45,-70,-25,19,-20,-21,16,-1,80,10,-48,24,-26,-35,-28,55,44,55,1,-26,-31,-29,22,-83,14,0,3,27,34,67,58,40,-33,54,50,5,-19,33,34, 
  /* [9][0][][] */ 29,-113,-19,12,53,108,-20,-33,26,-44,81,101,-7,11,102,-64,6,-28,-24,22,-43,-12,45,-14,-22,29,4,16,-30,-15,27,-23,2,48,-91,41,-2,7,13,49,31,-54,-6,80,59,-29,-52,-17,38,3,-6,-71,48,44,-24,-65,15,92,4,12,20,-24,-49,127,-74,-12,15,-24,-13,10,-42,-88,65,5,-4,18,32,-64,4,-23,5,-25,29,31,2,-42,49,28,9,-45,-39,30,-44,-20,2,-41, 
  /* [10][0][][] */ -40,-23,-26,-49,-35,6,59,-28,34,19,21,45,27,-4,-9,5,-7,15,-21,-26,1,43,28,15,-7,0,14,-127,29,-51,53,-33,3,33,-4,-13,-11,22,8,-10,6,-31,28,-39,34,-19,37,21,1,34,-31,-26,-30,-22,-6,-55,11,18,-4,-44,24,19,-5,19,-36,82,-7,-37,9,-36,11,-17,-18,3,21,49,-13,36,-21,8,-16,-5,17,34,14,-6,1,113,4,-6,13,10,25,-46,37,-37, 
  /* [11][0][][] */ -76,13,-5,-3,-3,-52,-7,-2,-46,-10,-4,25,25,25,-26,1,50,0,-72,-45,29,7,-5,2,73,19,58,-4,-16,16,-36,13,-9,35,-9,-8,-7,4,35,3,-5,1,6,17,95,13,92,27,45,24,-1,42,11,-60,19,-9,-60,-16,-36,-43,-10,2,-10,26,-5,-27,36,-6,26,4,-1,28,-18,8,28,9,-41,71,-127,57,-26,-16,-53,-58,119,24,47,3,14,41,-27,-58,-26,40,-24,3, 
  /* [12][0][][] */ -5,5,-36,5,77,18,3,-19,-15,22,27,-4,5,-25,30,-8,-31,-11,26,-26,-15,-16,-37,41,-30,34,-17,93,-16,41,-50,7,-12,20,5,24,-18,-17,0,9,-9,-27,-2,0,-28,-3,11,14,-1,0,-12,-30,-28,9,-5,-22,-24,-7,21,28,-6,-28,9,44,46,-71,12,61,-31,-127,-4,43,1,15,4,81,20,-21,-5,8,-7,33,-51,6,11,-23,-9,-57,-6,14,11,5,-37,39,-17,17, 
  /* [13][0][][] */ -92,48,-32,-31,-75,-16,13,29,-53,-27,45,41,67,4,-60,-8,-14,45,-54,-12,18,-21,63,-58,59,69,-21,-17,5,-31,-49,-109,-105,-60,-8,-12,-11,37,59,-16,-34,97,-5,5,10,-1,2,12,67,-15,49,92,55,-82,78,-16,-7,35,20,-26,23,47,-13,27,2,-26,17,6,10,14,35,-127,5,-44,-85,9,54,52,-67,-47,99,-27,-8,-24,45,-48,90,19,-18,-18,2,33,55,-47,-50,35, 
  /* [14][0][][] */ -49,24,-15,-48,60,-12,-19,46,-87,-4,18,3,-32,-59,-85,-57,-88,-2,80,10,36,-25,3,-102,-34,13,-53,-7,8,-13,-19,-28,-64,-45,25,19,-13,7,-2,5,0,68,-75,-21,-85,33,2,15,127,-14,37,-21,36,58,-97,35,-12,24,-115,9,1,22,54,14,9,28,-9,8,-42,37,53,35,5,-20,-26,14,73,-80,-28,-91,25,-27,5,29,28,-76,-54,-6,-44,27,28,54,8,45,15,-1, 
  /* [15][0][][] */ -54,-65,1,-21,22,-7,-17,-51,-9,12,1,-44,32,-21,50,-30,-84,11,-6,12,-23,-12,-73,-36,-22,-22,-3,27,-24,6,56,-72,-8,11,14,14,-2,39,-106,5,17,-68,-13,13,-60,-28,27,17,37,29,-9,-127,-9,48,3,41,23,-11,-23,39,7,-19,45,-17,10,-6,-18,5,-20,39,-6,33,-62,2,-4,-31,-5,1,10,22,-16,51,-16,48,-24,-52,-46,-54,-47,51,15,74,-29,9,11,-9, 
};
const TfArray<4, int> tensor_dimension9 = { 4, { 16,1,1,96 } };
const TfArray<16, float> quant9_scale = { 16, { 0.032507084310054779, 0.019398357719182968, 0.0080743143334984779, 0.011308622546494007, 0.013716131448745728, 0.013913145288825035, 0.013694081455469131, 0.014684365130960941, 0.014988270588219166, 0.010054749436676502, 0.02624053880572319, 0.027740815654397011, 0.015604373067617416, 0.0094563234597444534, 0.021226134151220322, 0.025721581652760506, } };
const TfArray<16, int> quant9_zero = { 16, { 0,0,0,0,0,0,0,0,0,0,0,0,0,0,0,0 } };
const TfLiteAffineQuantization quant9 = { (TfLiteFloatArray*)&quant9_scale, (TfLiteIntArray*)&quant9_zero, 0 };
const ALIGN(16) int32_t tensor_data10[96] = { 23056, 62801, -1369, 274, 16482, -6588, -658, 101, 5090, 10850, -4625, -111, 748, 5175, 5093, -9400, -4018, -328, -159, 16424, -10813, 18096, -2971, 6729, 28886, 532, -5381, 19814, 14139, -19766, 2024, 23671, 24357, -12138, 1911, -368, -260, -1004, 5412, -8246, -6701, -1525, -8390, 39, 29222, -2599, 13312, -1848, -14184, 997, 140, 778, -2538, 25022, -3856, 15166, 25884, 172, 35897, 282, -10119, -499, 1591, -477, -1486, 15003, -1832, -4898, -4600, 4609, 173, -4620, 1487, 296, -2149, -8201, -796, -2627, 47925, -8459, -5692, -10974, -398, 12, 57668, -12741, -12440, -28857, -5394, 8887, -2636, 33968, 241, -2254, -3742, 702, };
const TfArray<1, int> tensor_dimension10 = { 1, { 96 } };
const TfArray<96, float> quant10_scale = { 96, { 0.00010016817395808175, 9.1465073637664318e-05, 0.00011193062528036535, 0.00019735464593395591, 0.00021296222985256463, 0.00011479018576210365, 7.2305650974158198e-05, 8.4511877503246069e-05, 0.00021417575771920383, 0.00022069018450565636, 0.00023475657508242875, 0.00011151075159432366, 0.00023447860439773649, 0.00019145786063745618, 0.00038924068212509155, 0.00015565019566565752, 0.00021520616428460926, 0.00017615480464883149, 0.00015893524687271565, 6.7575849243439734e-05, 6.7600973125081509e-05, 4.8509558837395161e-05, 0.0001329758670181036, 0.00010767511412268505, 9.0418659965507686e-05, 0.00011355143215041608, 0.00016542513913009316, 0.00015197659377008677, 6.957166624488309e-05, 0.00044371889089234173, 0.00036650511901825666, 0.00024110368394758552, 0.00012630043784156442, 0.00012841599527746439, 0.00021206085511948913, 0.00044967187568545341, 0.00036072352668270469, 0.00018927697965409607, 0.00021522845781873912, 0.00010762368037831038, 0.0001889878767542541, 0.00021290183940436691, 0.00036672447458840907, 7.7031494583934546e-05, 0.00036361129605211318, 9.0389869001228362e-05, 0.00011409478611312807, 0.00029756160802207887, 0.00066328718094155192, 9.039064752869308e-05, 0.00039199762977659702, 0.00017651505186222494, 0.00021723120880778879, 0.00011134146916447207, 0.00023591234639752656, 0.00011714669381035492, 0.00010670108167687431, 0.0004264981544110924, 4.3279800593154505e-05, 0.00015096405695658177, 0.00025801287847571075, 0.00028470595134422183, 0.0001070381113095209, 0.00014771377027500421, 0.00012534909183159471, 0.0001188969035865739, 0.00023693087860010564, 0.00045898312237113714, 0.00017478906374890357, 9.8229356808587909e-05, 0.00017068455053959042, 9.3303446192294359e-05, 0.00024807991576381028, 0.00013984699035063386, 0.00037328264443203807, 0.00023071796749718487, 0.00012864616292063147, 9.7333715530112386e-05, 5.3963805839885026e-05, 0.00014486524742096663, 0.00022706582967657596, 0.00022362323943525553, 0.00016923417570069432, 0.00024768884759396315, 6.151386332930997e-05, 0.00012554397108033299, 7.5372416176833212e-05, 0.00047767351497896016, 0.00031151148141361773, 0.00011764453665819019, 0.00032215128885582089, 3.2872012525331229e-05, 0.00014888781879562885, 0.00010002300405176356, 0.00029689195798709989, 0.00031414625118486583, } };
const TfArray<96, int> quant10_zero = { 96, { 0,0,0,0,0,0,0,0,0,0,0,0,0,0,0,0,0,0,0,0,0,0,0,0,0,0,0,0,0,0,0,0,0,0,0,0,0,0,0,0,0,0,0,0,0,0,0,0,0,0,0,0,0,0,0,0,0,0,0,0,0,0,0,0,0,0,0,0,0,0,0,0,0,0,0,0,0,0,0,0,0,0,0,0,0,0,0,0,0,0,0,0,0,0,0,0 } };
const TfLiteAffineQuantization quant10 = { (TfLiteFloatArray*)&quant10_scale, (TfLiteIntArray*)&quant10_zero, 0 };
const ALIGN(16) int8_t tensor_data11[1*3*3*96] = { 
  /* [0][0][][] */ -48,-70,-11,127,22,69,75,-62,-15,-18,-16,-4,-29,0,37,-2,-10,-45,26,21,14,-127,127,6,-83,9,49,-30,-127,-127,39,22,13,32,60,-17,-31,-10,29,-7,-12,28,-107,69,26,-67,36,48,-18,54,-22,18,3,-9,14,47,-91,-49,-61,-18,-12,-1,7,40,69,-25,78,15,-6,18,19,127,23,22,25,-2,-11,17,127,-8,-16,14,-26,20,127,19,-69,-15,0,-29,-16,-43,1,-24,-15,26, 127,-127,76,105,-44,127,37,-120,71,4,-18,127,127,-101,-13,10,11,127,127,-113,127,-74,81,67,-127,-120,-68,-37,-56,46,-57,-23,-86,65,-127,-82,-44,-15,-55,61,0,127,127,78,-51,-109,-111,-51,-15,-127,48,82,67,-33,43,83,-49,43,-83,-114,-43,-43,-63,68,74,-61,29,31,-81,34,-19,93,115,127,13,17,3,57,-30,51,63,123,127,-23,-7,72,-103,127,-122,-97,5,-127,-92,-127,-38,109, -77,-13,31,-83,15,-26,61,-9,82,-33,-28,22,-19,-5,-7,-13,-9,-16,6,-5,-29,-93,31,-2,-121,97,7,-57,116,50,-14,8,5,20,13,-30,-9,33,16,12,24,13,-117,63,18,-16,36,14,-15,12,-15,4,-9,0,-3,24,-66,8,-33,51,4,41,34,1,-6,-39,-30,25,10,4,-4,36,10,-25,-6,5,-12,-7,-82,1,-22,-22,-18,3,-113,6,-32,-20,-52,25,-26,-35,28,-25,-14,1, 
  /* [0][1][][] */ -66,-74,74,-37,-50,98,19,127,-51,-20,-1,-116,25,-117,77,33,-4,-61,-19,89,58,-73,48,49,-95,-9,127,-22,-24,64,119,-107,-127,97,-85,-53,-36,34,-28,97,-48,-26,-4,49,-47,127,-26,67,15,98,21,-3,13,-57,25,32,127,120,-71,-83,127,-35,-37,127,72,-37,-15,-2,127,38,127,97,-40,100,-4,13,15,13,-28,8,-43,127,-78,109,2,34,-50,30,75,-127,-32,-9,127,-67,-21,1, 67,125,57,-117,127,82,87,38,-127,127,127,-36,-66,-127,-127,127,127,-63,-125,-51,111,82,-116,127,-106,-94,-44,127,-127,109,-127,-127,-89,127,108,127,127,-127,-109,127,-62,-94,113,-127,-127,-33,-127,-127,127,-111,87,41,127,127,127,-127,99,-127,-127,127,20,-80,-127,-100,-127,127,-127,127,-124,-127,-108,-85,-127,-78,127,127,-127,127,-74,127,127,33,-40,-127,60,127,91,47,127,12,127,3,-69,37,127,-127, -55,-13,-48,39,-58,-97,32,-28,20,-33,-29,92,2,94,14,10,-6,64,-8,127,3,-81,-39,8,-76,108,-70,-20,-68,-16,16,-64,-69,40,6,-15,-29,44,-69,44,127,-4,-38,29,-39,-56,15,46,8,120,-9,6,-36,-73,3,21,95,4,1,20,-33,127,95,-51,-42,12,38,-11,-73,124,-20,-86,0,-54,-16,-18,27,15,77,-36,-70,-40,56,14,-47,-18,68,24,15,62,-44,20,-44,96,-25,-4, 
  /* [0][2][][] */ -68,3,-3,-21,13,-40,65,24,55,-28,-37,-2,17,16,-27,7,-8,64,9,1,-53,-80,2,-10,-21,-58,36,-70,89,39,25,24,14,-5,-10,-45,-7,37,-3,0,-15,-6,-68,103,3,33,11,38,-17,-29,9,-22,19,-5,7,14,-71,22,-10,15,15,-1,-21,-6,-1,-47,-47,17,-31,11,25,30,11,-19,26,8,18,5,-74,-11,-8,-12,18,15,-126,10,17,-42,-59,-50,-28,-46,9,58,-17,-9, 122,34,-127,-37,-74,-25,36,33,-65,-28,-20,-103,-78,114,-12,44,5,-52,-8,-127,99,-54,-39,0,-112,127,-51,20,-35,-22,-10,-7,-66,20,28,6,-23,-28,127,53,12,-13,68,-35,-39,77,-66,-43,-33,-4,-127,-127,-52,-29,1,40,-66,-9,16,38,-6,-19,11,-47,-54,32,64,-21,111,109,-25,-71,9,-57,3,5,103,5,50,23,13,-101,-46,3,2,12,127,41,-62,37,-19,-107,41,81,-9,26, -55,13,-16,27,15,-67,-127,3,-11,-8,-16,4,14,-28,19,4,-7,-17,6,17,-50,-58,12,0,16,-99,20,3,-48,-40,-7,14,41,-19,-5,-23,-36,5,42,-40,23,-2,-48,-34,3,68,22,17,-10,-4,10,-9,18,3,-5,-6,-61,-11,7,-39,-11,9,86,-12,35,-3,-3,29,-2,5,-5,20,-18,15,-1,16,37,0,73,-11,4,-14,-4,-17,74,3,46,-36,59,38,-17,-49,-8,1,-14,-16, 
};
const TfArray<4, int> tensor_dimension11 = { 4, { 1,3,3,96 } };
const TfArray<96, float> quant11_scale = { 96, { 0.0042571472004055977, 0.0038872654549777508, 0.0047570513561367989, 0.0083875721320509911, 0.0090508945286273956, 0.0048785828985273838, 0.0030729901045560837, 0.0035917547065764666, 0.0091024693101644516, 0.0093793328851461411, 0.0099771544337272644, 0.004739206749945879, 0.0099653406068682671, 0.0081369588151574135, 0.016542728990316391, 0.0066151334904134274, 0.0091462619602680206, 0.0074865790084004402, 0.0067547480575740337, 0.0028719734400510788, 0.0028730412013828754, 0.0020616562105715275, 0.0056514744646847248, 0.0045761922374367714, 0.0038427929393947124, 0.0048259356990456581, 0.0070305685512721539, 0.0064590051770210266, 0.0029567957390099764, 0.018858052790164948, 0.015576467849314213, 0.01024690642952919, 0.0053677684627473354, 0.0054576797410845757, 0.0090125864371657372, 0.019111054018139839, 0.015330749563872814, 0.0080442717298865318, 0.0091472091153264046, 0.0045740064233541489, 0.0080319847911596298, 0.0090483278036117554, 0.015585789456963539, 0.0032738384325057268, 0.015453479252755642, 0.0038415694143623114, 0.0048490283079445362, 0.012646368704736233, 0.028189703822135925, 0.0038416024763137102, 0.016659898683428764, 0.0075018894858658314, 0.0092323264107108116, 0.0047320122830569744, 0.010026274248957634, 0.0049787345342338085, 0.004534795880317688, 0.018126171082258224, 0.0018393915379419923, 0.0064159720204770565, 0.010965547524392605, 0.012100002728402615, 0.004549119621515274, 0.0062778349965810776, 0.005327336024492979, 0.0050531183369457722, 0.010069562122225761, 0.019506782293319702, 0.0074285347945988178, 0.0041747475042939186, 0.0072540929540991783, 0.0039653964340686798, 0.010543395765125751, 0.0059434967115521431, 0.015864511951804161, 0.0098055135458707809, 0.0054674618877470493, 0.0041366829536855221, 0.0022934617009013891, 0.0061567728407680988, 0.0096502974629402161, 0.009503987617790699, 0.0071924524381756783, 0.010526775382459164, 0.0026143391150981188, 0.0053356187418103218, 0.0032033275347203016, 0.020301124081015587, 0.013239237479865551, 0.0049998927861452103, 0.013691429048776627, 0.0013970605796203017, 0.0063277324661612511, 0.0042509776540100574, 0.012617907486855984, 0.013351215049624443, } };
const TfArray<96, int> quant11_zero = { 96, { 0,0,0,0,0,0,0,0,0,0,0,0,0,0,0,0,0,0,0,0,0,0,0,0,0,0,0,0,0,0,0,0,0,0,0,0,0,0,0,0,0,0,0,0,0,0,0,0,0,0,0,0,0,0,0,0,0,0,0,0,0,0,0,0,0,0,0,0,0,0,0,0,0,0,0,0,0,0,0,0,0,0,0,0,0,0,0,0,0,0,0,0,0,0,0,0 } };
const TfLiteAffineQuantization quant11 = { (TfLiteFloatArray*)&quant11_scale, (TfLiteIntArray*)&quant11_zero, 3 };
const ALIGN(16) int32_t tensor_data12[96] = { 1839, 9642, 12619, 17226, 14412, -4179, -1994, 4566, 35350, -4869, 12148, 3274, 8331, 10623, 32079, 1653, 2545, 11140, 10914, 6734, -238, 571, 14052, -1370, 4892, 114, 13454, 6435, 8790, 41582, 51732, 19306, 10781, -886, 11194, 2448, 1432, 3644, 20343, -990, 14193, 8375, 35477, -3265, 24951, 8965, 8313, 22983, 60059, 13785, -776, 6047, -2492, 28, -2562, 6282, -483, 16041, 5819, 9071, 6668, 16023, 7205, 4969, 10577, 10586, 7033, -6389, 6415, -2303, 4873, 8406, 16755, 4901, -6678, -3683, 7247, 511, 2771, -1737, 18156, 12731, 4575, 18974, 4329, 276, 7797, 63821, 10289, 9586, 7278, -409, 5511, 7742, 4315, 10561, };
const TfArray<1, int> tensor_dimension12 = { 1, { 96 } };
const TfArray<96, float> quant12_scale = { 96, { 0.00020661699818447232, 0.00015008391346782446, 0.00014804255624767393, 0.00013276308891363442, 0.00020318965835031122, 0.0002465899451635778, 0.00041543904808349907, 0.00036512181395664811, 6.6988759499508888e-05, 0.00027787446742877364, 0.00022274295042734593, 0.00026608459302224219, 0.0001511710142949596, 0.00021798329544253647, 7.3728362622205168e-05, 0.00033702937071211636, 0.00019191000319551677, 0.00011300884216325358, 0.00020361470524221659, 0.00017535504593979567, 0.00030701863579452038, 0.00050265318714082241, 0.00014431604358833283, 0.00044885076931677759, 0.00053505669347941875, 0.00019517476903274655, 0.00016548206622246653, 0.00021660553466062993, 0.00018523358448874205, 8.4754166891798377e-05, 5.4112853831611574e-05, 0.00012927601346746087, 0.00015491528029087931, 0.00026320095639675856, 0.00017876429774332792, 0.00021984912746120244, 0.00036438312963582575, 0.00040900293970480561, 0.00013340100122150034, 0.00055675412295386195, 0.00013554339238908142, 0.00019255590450484306, 7.5854826718568802e-05, 0.00032228679629042745, 0.00012772766058333218, 0.0001706896728137508, 0.00020692327234428376, 0.00011820861982414499, 6.9085086579434574e-05, 0.00015439442358911037, 0.00019644976418931037, 0.00029055864433757961, 0.00042726195533759892, 0.00021805371216032654, 0.00039762895903550088, 0.00017663944163359702, 0.00019861543842125684, 0.00011790839926106855, 0.00034599695936776698, 0.00015840152627788484, 0.00024079924332909286, 8.7555148638784885e-05, 0.00020463085093069822, 0.00019961374346166849, 0.0002323956141481176, 0.00018324065604247153, 0.00018038335838355124, 0.00020341605704743415, 0.00025988783454522491, 0.00029507037834264338, 0.00023661441809963435, 0.00019033126591239125, 0.0001205280059366487, 0.00020763213979080319, 0.00023142121790442616, 0.00036590517265722156, 0.00022552548034582287, 0.00026988115860149264, 0.00026914608315564692, 0.00021532706159632653, 0.00011158257984789088, 0.00012867539771832526, 0.0001841938792495057, 0.00010560249938862398, 0.00026970950420945883, 0.0002382325183134526, 0.00029229430947452784, 5.9125246480107307e-05, 0.00013957405462861061, 0.0002362462691962719, 0.00017569771443959326, 0.0003159134357701987, 0.00027049143682233989, 0.00020011489687021822, 0.00025530366110615432, 0.00015452250954695046, } };
const TfArray<96, int> quant12_zero = { 96, { 0,0,0,0,0,0,0,0,0,0,0,0,0,0,0,0,0,0,0,0,0,0,0,0,0,0,0,0,0,0,0,0,0,0,0,0,0,0,0,0,0,0,0,0,0,0,0,0,0,0,0,0,0,0,0,0,0,0,0,0,0,0,0,0,0,0,0,0,0,0,0,0,0,0,0,0,0,0,0,0,0,0,0,0,0,0,0,0,0,0,0,0,0,0,0,0 } };
const TfLiteAffineQuantization quant12 = { (TfLiteFloatArray*)&quant12_scale, (TfLiteIntArray*)&quant12_zero, 0 };
const ALIGN(16) int8_t tensor_data13[96*1*1*16] = { 
  /* [0][0][][] */ 17,74,-40,77,-7,36,-12,-28,38,14,-62,108,-7,-127,50,-88, 
  /* [1][0][][] */ 31,68,-5,-38,18,-37,127,-125,-6,94,-9,-29,8,-46,10,27, 
  /* [2][0][][] */ -127,14,-52,-6,-17,-16,40,87,-61,52,119,-53,-65,10,22,-81, 
  /* [3][0][][] */ -78,27,30,70,-28,28,62,97,7,48,-127,40,25,-50,-44,-35, 
  /* [4][0][][] */ 12,-23,27,58,-22,93,7,36,8,7,22,-9,29,-13,-127,-32, 
  /* [5][0][][] */ 11,-19,56,-32,-11,-48,-20,32,-96,85,-64,-127,-28,24,-45,-10, 
  /* [6][0][][] */ 12,1,31,-15,38,52,-86,-73,-9,-2,38,-27,127,-17,-18,-30, 
  /* [7][0][][] */ 33,-3,127,-5,-8,-23,29,-13,-57,42,-82,-26,6,-9,47,-21, 
  /* [8][0][][] */ 44,14,89,69,-58,63,3,51,23,0,14,-85,-41,16,-127,-60, 
  /* [9][0][][] */ 55,-80,59,62,7,-31,-19,-2,99,3,64,-20,-39,-9,-127,-53, 
  /* [10][0][][] */ -6,-77,46,-31,-74,6,-2,80,127,119,54,-28,-35,78,106,11, 
  /* [11][0][][] */ 44,-18,25,-103,30,-41,-119,-127,-70,81,25,-10,44,-19,22,-91, 
  /* [12][0][][] */ 6,-6,28,-20,-39,-10,-110,-11,-52,-59,-19,0,11,127,58,22, 
  /* [13][0][][] */ -66,-127,-42,36,8,-54,0,-41,92,-2,12,-39,57,35,91,22, 
  /* [14][0][][] */ -12,-65,56,37,39,39,14,127,39,68,-3,-33,15,66,-70,100, 
  /* [15][0][][] */ -7,-41,-9,33,2,-21,111,2,-10,-127,14,-56,-9,-32,-19,-33, 
  /* [16][0][][] */ 57,-72,-36,31,4,14,26,-39,124,61,91,7,16,100,66,127, 
  /* [17][0][][] */ -94,-80,65,114,122,56,41,-1,127,-54,21,-54,81,106,-71,40, 
  /* [18][0][][] */ -34,0,-3,34,-79,-2,1,43,-46,-12,-11,-42,2,-127,83,-42, 
  /* [19][0][][] */ 103,-91,79,-64,127,33,-115,93,88,-75,83,29,-13,38,21,123, 
  /* [20][0][][] */ 29,-7,59,-68,-1,-2,-43,23,-17,-58,95,-3,18,26,-21,127, 
  /* [21][0][][] */ -60,-7,12,-5,28,27,-73,-55,-20,46,-9,41,-127,-7,32,-43, 
  /* [22][0][][] */ 26,-19,23,-31,10,-73,14,-21,-127,33,-11,-42,-17,-10,66,-12, 
  /* [23][0][][] */ 12,3,25,-6,1,15,-7,-6,-9,-6,43,-19,127,8,12,-36, 
  /* [24][0][][] */ 9,18,5,-29,13,-1,64,1,-55,9,-12,-124,-32,-127,14,-27, 
  /* [25][0][][] */ -99,60,-63,-33,46,-41,-50,-127,-30,45,-3,-3,-37,-80,89,-26, 
  /* [26][0][][] */ 31,-8,35,-96,107,-11,1,3,127,-44,59,-6,-11,103,12,79, 
  /* [27][0][][] */ 95,-30,25,-30,-34,-51,5,-23,-26,28,-127,9,12,-17,-11,33, 
  /* [28][0][][] */ -112,-16,-127,-78,51,-14,65,-73,-4,35,-70,17,19,-12,-41,64, 
  /* [29][0][][] */ -48,-27,6,127,-13,10,-8,-30,-12,-14,-73,35,15,-57,16,-28, 
  /* [30][0][][] */ 86,-12,127,9,69,55,-45,55,-38,-74,99,-52,-19,23,-84,30, 
  /* [31][0][][] */ 18,-87,-5,-50,-14,-68,16,-42,7,37,97,26,-21,90,77,127, 
  /* [32][0][][] */ -11,88,-36,33,-127,22,-80,-52,-52,-28,3,65,18,60,47,63, 
  /* [33][0][][] */ 8,-33,11,90,-12,-15,28,-50,-127,49,47,-47,-9,-10,-4,97, 
  /* [34][0][][] */ 49,-24,15,7,76,-29,-115,-27,-51,127,-36,-19,-46,14,-29,14, 
  /* [35][0][][] */ 48,3,-28,-50,15,-127,-13,11,-39,10,-52,13,62,23,-7,62, 
  /* [36][0][][] */ 11,-1,-127,10,51,14,-28,27,-27,-21,7,-3,-4,19,-14,9, 
  /* [37][0][][] */ 16,-12,127,-12,-81,26,13,-77,-18,7,-56,33,35,-22,31,25, 
  /* [38][0][][] */ -127,33,5,32,51,86,5,-31,42,-40,104,-36,-45,4,-13,-25, 
  /* [39][0][][] */ -16,-7,18,35,33,-13,-127,32,12,26,-1,-36,-3,-24,-3,-5, 
  /* [40][0][][] */ -3,118,-32,127,32,48,78,50,-103,-37,-44,104,-14,40,-90,-41, 
  /* [41][0][][] */ 15,53,-54,-27,-49,10,127,89,-31,108,-38,7,9,66,59,-16, 
  /* [42][0][][] */ -8,-29,-45,-23,-10,-34,-108,61,45,-127,43,18,-37,36,-51,61, 
  /* [43][0][][] */ -55,0,45,-27,46,22,-77,-90,-23,35,-17,-9,-127,-1,16,-8, 
  /* [44][0][][] */ 40,47,-10,14,10,-17,-3,-18,127,2,12,55,33,67,12,43, 
  /* [45][0][][] */ -55,-114,41,-93,6,-15,-14,27,-38,-65,4,0,33,127,-50,124, 
  /* [46][0][][] */ -42,32,-13,110,-86,-16,10,-102,-127,45,-29,-18,-5,31,9,-56, 
  /* [47][0][][] */ -10,10,-122,127,-15,77,-18,-45,5,46,77,74,-23,-27,51,-20, 
  /* [48][0][][] */ 8,30,67,-103,55,-14,-34,-38,-57,38,58,-9,-36,79,127,16, 
  /* [49][0][][] */ -64,2,52,87,-43,-17,-73,12,-7,-79,-95,-71,7,-31,-121,-127, 
  /* [50][0][][] */ -9,98,-9,-127,57,-12,-36,66,119,-46,-63,11,-8,-67,49,-23, 
  /* [51][0][][] */ 7,-2,13,-21,40,-9,-51,-127,16,-69,19,14,0,2,-6,5, 
  /* [52][0][][] */ 10,-11,-19,21,33,-29,-69,88,-101,127,-24,-65,99,90,11,-37, 
  /* [53][0][][] */ -12,97,17,-103,-44,-5,33,-27,-80,-57,-44,36,9,-121,-127,-18, 
  /* [54][0][][] */ 7,4,26,37,43,-26,-2,-28,-1,32,-9,-24,-7,127,-44,-17, 
  /* [55][0][][] */ -105,127,64,-26,38,-6,-34,15,-45,-1,92,2,2,-10,116,-1, 
  /* [56][0][][] */ 41,3,15,-127,66,3,-11,38,56,-59,23,103,-47,14,84,51, 
  /* [57][0][][] */ -50,-31,1,104,-32,39,60,127,2,30,15,-63,8,47,-10,-9, 
  /* [58][0][][] */ 32,127,16,-97,31,54,-28,7,125,14,-7,108,1,-75,20,41, 
  /* [59][0][][] */ 42,47,54,-127,-44,3,17,-13,5,14,45,-39,-8,-101,-86,40, 
  /* [60][0][][] */ 53,3,125,-100,-81,127,74,-41,-44,47,-48,-42,65,3,51,3, 
  /* [61][0][][] */ -60,64,-53,-86,-84,-21,126,127,-44,70,-32,27,11,82,23,-15, 
  /* [62][0][][] */ 17,-2,-3,-3,-80,17,-67,19,-14,-44,-18,-42,40,-127,108,41, 
  /* [63][0][][] */ 13,-30,-7,-73,28,-17,-127,-120,-80,81,-16,-2,44,13,2,-30, 
  /* [64][0][][] */ -45,-24,36,68,94,-4,-36,-127,24,-121,-17,-58,-8,-30,-7,-11, 
  /* [65][0][][] */ -127,18,24,-69,15,72,49,-56,-81,30,41,4,9,11,5,-23, 
  /* [66][0][][] */ 111,29,111,37,-38,39,-28,44,-42,-26,52,-75,-37,56,-127,-30, 
  /* [67][0][][] */ 24,-49,-32,64,60,-39,-91,-117,41,-127,-53,-20,-92,34,-82,5, 
  /* [68][0][][] */ 53,-23,-91,70,-47,-77,1,-82,-29,-4,88,-99,-18,70,127,-39, 
  /* [69][0][][] */ -36,23,-53,59,-27,-107,34,76,12,15,50,-27,127,27,-35,-8, 
  /* [70][0][][] */ 22,16,-44,-35,-48,-7,127,105,-33,44,-38,15,7,40,25,-10, 
  /* [71][0][][] */ -4,-31,-28,-11,36,19,0,43,-16,-45,-22,4,5,-127,85,-8, 
  /* [72][0][][] */ 6,12,-11,26,21,-35,-41,-127,-3,55,-25,18,29,46,37,47, 
  /* [73][0][][] */ -38,-127,-22,-32,-96,-32,18,1,-38,-7,-48,-49,8,-53,45,-38, 
  /* [74][0][][] */ -38,30,74,119,3,13,-127,112,42,-26,-35,-41,-6,2,-21,-12, 
  /* [75][0][][] */ -42,37,-45,-14,-52,67,97,127,-9,41,11,-47,-94,39,1,19, 
  /* [76][0][][] */ 21,-22,-49,-39,49,-111,-127,-115,-15,-19,24,4,84,26,127,-9, 
  /* [77][0][][] */ -44,-3,-39,-21,-63,-2,-27,-41,127,11,-70,2,2,46,22,-87, 
  /* [78][0][][] */ -92,-119,14,104,101,35,-37,43,3,-83,-127,83,80,-21,89,71, 
  /* [79][0][][] */ 61,-10,42,-78,127,-4,61,40,95,20,7,28,8,-20,7,-25, 
  /* [80][0][][] */ -1,-57,63,-87,-19,-54,6,12,-76,-34,-10,-67,-2,127,-55,-1, 
  /* [81][0][][] */ -7,-10,34,27,-7,22,-11,-12,-1,-33,-31,-55,-31,56,-127,34, 
  /* [82][0][][] */ -63,3,70,-127,7,-4,-31,-32,11,-44,-29,-112,10,-64,-127,-8, 
  /* [83][0][][] */ 1,-5,-22,-49,-49,11,-27,45,-84,7,37,-64,10,-127,33,54, 
  /* [84][0][][] */ 127,27,21,71,-62,8,-84,29,-10,-37,113,-8,-73,20,89,-87, 
  /* [85][0][][] */ -13,-2,6,-53,36,-16,-37,127,-84,-111,-95,-27,-21,70,98,-112, 
  /* [86][0][][] */ 25,-11,28,2,-20,59,-29,63,-52,-49,26,-46,-6,-127,-47,-2, 
  /* [87][0][][] */ 120,-27,-5,-26,-62,-63,32,29,-41,41,-127,42,59,4,43,97, 
  /* [88][0][][] */ -22,41,-18,-2,10,-63,-32,22,127,-38,77,8,-39,7,110,-86, 
  /* [89][0][][] */ 43,58,-69,-20,-25,-7,22,-65,56,52,25,-25,-39,18,-35,-127, 
  /* [90][0][][] */ -14,-26,13,-91,-65,15,127,-57,90,-79,5,-68,36,-11,-41,-6, 
  /* [91][0][][] */ 14,-20,3,-127,-56,6,26,-30,-57,26,37,3,8,-33,-31,97, 
  /* [92][0][][] */ 8,-7,-8,20,36,-17,-62,-127,19,-59,0,-28,-40,-30,1,-23, 
  /* [93][0][][] */ 74,10,34,-127,-33,5,-16,17,39,-44,78,-3,-6,93,-21,48, 
  /* [94][0][][] */ -74,32,-65,1,44,-127,-22,22,-26,-55,89,-11,-13,-5,-12,4, 
  /* [95][0][][] */ -59,87,-13,-127,-14,-12,-30,-3,26,-44,-32,-35,7,13,-33,-8, 
};
const TfArray<4, int> tensor_dimension13 = { 4, { 96,1,1,16 } };
const TfArray<96, float> quant13_scale = { 96, { 0.00071036088047549129, 0.00051599694415926933, 0.00050897861365228891, 0.00045644698548130691, 0.00069857749622315168, 0.00084779009921476245, 0.0014283028431236744, 0.0012553093256428838, 0.00023031112505123019, 0.00095534807769581676, 0.00076580280438065529, 0.0009148137760348618, 0.00051973445806652308, 0.00074943882646039128, 0.00025348225608468056, 0.0011587259359657764, 0.0006597973988391459, 0.00038853075238876045, 0.00070003879955038428, 0.00060288049280643463, 0.0010555473854765296, 0.0017281499458476901, 0.00049616670003160834, 0.0015431741485372186, 0.0018395549850538373, 0.00067102181492373347, 0.0005689366371370852, 0.00074470200343057513, 0.00063684349879622459, 0.00029138958780094981, 0.00018604303477331996, 0.00044445818639360368, 0.00053260743152350187, 0.00090489973081275821, 0.00061460171127691865, 0.00075585365993902087, 0.0012527697253972292, 0.0014061750844120979, 0.00045864016283303499, 0.0019141520606353879, 0.00046600581845268607, 0.00066201802110299468, 0.00026079316739924252, 0.0011080401018261909, 0.00043913489207625389, 0.00058684067334979773, 0.00071141385706141591, 0.00040640789666213095, 0.00023751841217745095, 0.00053081673104315996, 0.00067540531745180488, 0.00099895696621388197, 0.0014689506497234106, 0.00074968091212213039, 0.0013670707121491432, 0.00060729635879397392, 0.00068285106681287289, 0.00040537570021115243, 0.0011895570205524564, 0.00054459337843582034, 0.00082788133295252919, 0.00030101952143013477, 0.00070353236515074968, 0.00068628328153863549, 0.00079898920375853777, 0.00062999170040711761, 0.00062016810989007354, 0.00069935584906488657, 0.00089350895723327994, 0.0010144686093553901, 0.00081349367974326015, 0.00065436959266662598, 0.00041438205516897142, 0.00071385095361620188, 0.00079563917824998498, 0.0012580025941133499, 0.00077536929165944457, 0.00092786661116406322, 0.0009253394091501832, 0.00074030656833201647, 0.00038362719351425767, 0.00044239326962269843, 0.00063326890813186765, 0.00036306734546087682, 0.00092727644369006157, 0.00081905681872740388, 0.0010049242991954088, 0.00020327592210378498, 0.00047986343270167708, 0.0008122279541566968, 0.00060405861586332321, 0.0010861281771212816, 0.00092996482271701097, 0.00068800628650933504, 0.00087774835992604494, 0.00053125707199797034, } };
const TfArray<96, int> quant13_zero = { 96, { 0,0,0,0,0,0,0,0,0,0,0,0,0,0,0,0,0,0,0,0,0,0,0,0,0,0,0,0,0,0,0,0,0,0,0,0,0,0,0,0,0,0,0,0,0,0,0,0,0,0,0,0,0,0,0,0,0,0,0,0,0,0,0,0,0,0,0,0,0,0,0,0,0,0,0,0,0,0,0,0,0,0,0,0,0,0,0,0,0,0,0,0,0,0,0,0 } };
const TfLiteAffineQuantization quant13 = { (TfLiteFloatArray*)&quant13_scale, (TfLiteIntArray*)&quant13_zero, 0 };
const ALIGN(16) int32_t tensor_data14[16] = { -1059, 2029, -12561, 29817, 21409, -119, -9816, -4197, 17368, -1019, 25250, 21529, -10109, 13344, 37430, -18978, };
const TfArray<1, int> tensor_dimension14 = { 1, { 16 } };
const TfArray<16, float> quant14_scale = { 16, { 0.00045517183025367558, 0.00024756486527621746, 0.00028815277619287372, 0.00023530400358140469, 0.00036289030686020851, 0.00029222178272902966, 0.00029290345264598727, 0.0004348421934992075, 0.00016910424164962023, 0.00019875550060532987, 0.00037075596628710628, 0.00066011410672217607, 0.00040998662007041276, 0.000422413315391168, 0.00043022102909162641, 0.00035170730552636087, } };
const TfArray<16, int> quant14_zero = { 16, { 0,0,0,0,0,0,0,0,0,0,0,0,0,0,0,0 } };
const TfLiteAffineQuantization quant14 = { (TfLiteFloatArray*)&quant14_scale, (TfLiteIntArray*)&quant14_zero, 0 };
const ALIGN(16) int8_t tensor_data15[16*1*1*96] = { 
  /* [0][0][][] */ 4,29,-9,11,38,84,-44,-30,44,-1,-4,3,0,5,19,63,8,-11,-13,-5,94,-52,-3,-23,-20,-49,-29,-100,2,-5,54,47,114,-10,25,-5,1,-10,-7,-3,-42,19,16,-22,22,-20,-10,18,-17,25,-12,-11,-31,-19,-3,6,55,30,-12,-23,-60,24,-24,-2,15,4,55,10,8,9,0,-32,-69,-14,-20,-1,6,-73,2,-19,33,9,-62,-41,26,-17,9,8,-9,-10,11,-38,32,21,0,127, 
  /* [1][0][][] */ 74,-92,44,76,-35,-50,-18,-27,-11,-103,-22,18,29,-69,-24,-29,-65,-6,-4,23,-31,-123,-39,35,127,-99,-68,22,-9,94,-9,67,28,23,-59,19,-7,-32,67,-23,-6,-65,63,-33,-49,13,72,-4,35,34,-19,-71,77,-80,37,-36,47,13,-15,-94,25,-57,32,-77,-25,-86,20,37,39,65,-61,17,-108,24,-35,75,37,97,-8,-30,55,-5,-83,5,-89,78,-6,48,-23,4,25,1,9,-33,34,-8, 
  /* [2][0][][] */ 22,13,8,-11,22,-10,-5,30,62,-10,13,58,1,7,44,-4,-19,-27,12,0,-5,-44,19,-35,1,-1,-25,21,-2,22,91,-55,11,-57,-17,44,14,127,-29,-20,2,-11,2,29,-37,-47,-60,25,28,25,-19,-27,20,11,14,-9,-29,3,0,24,8,7,54,87,17,-68,18,-64,-5,-21,-7,-5,-22,9,-10,11,13,53,16,12,17,79,35,-5,-10,-1,7,7,18,-2,-2,-44,-34,-2,3,58, 
  /* [3][0][][] */ -22,-47,-29,47,43,-35,3,-14,-7,24,14,1,-3,-7,42,-16,29,-46,42,22,-2,1,8,13,-21,41,4,-2,21,-31,48,-16,21,-6,-30,38,-8,0,-18,19,19,-74,27,-50,-33,-11,-10,14,-127,21,8,35,-119,-52,-16,-47,20,25,-6,50,-1,22,15,27,-9,-87,-41,15,55,-3,6,18,-42,22,3,-46,-44,-53,42,-38,13,-36,25,71,45,62,32,16,22,1,-10,7,-36,-7,-20,-29, 
  /* [4][0][][] */ -11,-34,7,-56,11,-15,-41,15,-5,-37,-32,-10,14,72,6,1,44,-10,6,4,-4,32,50,-2,5,2,24,3,19,-5,-2,-12,-38,10,10,9,29,-14,12,-5,5,16,-89,-25,33,-1,-13,-1,5,81,-3,-23,-18,10,22,1,-5,-16,28,32,6,1,2,-3,36,-112,22,-21,-56,14,-16,-7,-19,15,-10,27,-22,50,63,9,27,2,127,-42,31,-25,-14,-10,66,-3,-9,21,-23,29,-5,-37, 
  /* [5][0][][] */ -10,-10,-16,15,0,-6,-8,120,74,-17,-25,-40,-5,39,42,23,-22,-17,4,-36,-41,-5,27,-40,23,26,27,70,78,6,67,42,-61,29,-10,-13,-59,-41,-19,-25,-39,-8,-10,-7,68,10,16,18,14,8,-3,7,-33,2,17,8,-9,-12,-5,36,-56,18,-25,-46,10,16,-28,3,-16,13,9,-10,24,13,26,-12,-3,16,24,127,10,-70,40,33,-3,-14,28,-23,2,-40,12,-127,-38,-25,-3,-108, 
  /* [6][0][][] */ -25,-3,-11,-59,-1,-15,-29,10,3,30,-41,-1,45,-59,12,-8,3,-77,21,20,22,10,8,29,83,-4,5,2,31,-5,14,1,-25,0,-18,-10,30,19,45,28,-11,-19,-59,-24,2,-23,27,-127,17,33,8,10,15,8,-8,-27,64,-8,-8,16,23,18,6,4,34,71,27,-18,-44,-7,13,-14,15,-4,51,-2,-22,37,13,-2,-17,-8,47,-31,2,41,37,-47,35,-20,-38,-9,-10,14,1,20, 
  /* [7][0][][] */ 14,0,33,-37,-4,8,-3,-9,-18,-12,-14,-18,-2,-77,37,20,9,-18,-16,-9,4,-27,-33,5,-25,-5,8,-13,-3,4,7,2,-2,1,-23,-15,2,-24,-34,31,17,-22,-21,22,-17,9,-7,70,-4,13,-9,-21,-29,0,-15,-73,34,-10,-2,-1,-3,8,-4,-14,-32,48,8,-24,-1,1,-6,51,1,-5,-21,12,34,7,-4,-17,-2,-44,27,-4,-32,127,0,3,-38,-8,0,15,-25,-9,-11,1, 
  /* [8][0][][] */ -70,41,-67,6,34,18,-12,36,1,70,-68,1,52,59,64,-20,9,40,-87,5,6,22,-20,-10,-40,-23,37,-1,74,-117,21,-15,30,8,29,9,-31,23,-41,36,-7,25,-3,-122,-33,10,86,-22,-37,50,5,55,-127,91,23,1,37,-20,-19,-16,-8,-36,7,20,-37,44,45,-15,-15,3,47,95,-30,40,54,12,-2,-101,8,-45,9,-44,38,3,-89,5,45,-54,18,27,-37,13,43,1,-14,-2, 
  /* [9][0][][] */ 31,-77,-26,-23,23,41,-24,-1,41,-15,-4,19,-36,-9,5,22,-4,16,54,-22,3,16,-14,-36,36,23,33,-20,-33,-10,-33,5,-12,19,19,26,13,71,-20,6,5,11,-26,-105,23,-8,24,-127,-36,-11,-11,31,-6,11,-9,8,-33,37,-11,24,26,13,5,33,38,126,29,43,-3,-15,13,-22,-28,4,-19,7,74,2,28,18,-3,23,20,-45,9,24,4,-13,-62,22,-38,3,15,17,16,-17, 
  /* [10][0][][] */ 22,53,-25,45,61,-127,-11,-25,8,58,47,3,-25,24,12,-93,7,34,-25,46,-77,3,9,-19,-56,-18,-65,51,10,7,-5,41,-11,-10,18,-23,79,-15,-21,-8,-19,63,39,-18,-53,-19,-40,25,-23,-12,-29,-6,-12,3,17,1,-7,18,-30,-5,3,12,-15,20,7,50,52,17,8,1,24,42,-59,-16,-31,-5,5,7,-16,13,40,-29,-60,-34,61,-52,92,3,-21,12,27,-12,72,43,-19,-115, 
  /* [11][0][][] */ 53,36,-34,25,-17,29,56,-8,-6,-24,-29,-14,17,2,35,2,1,-10,-102,-9,9,10,20,-13,-47,-20,-11,2,9,13,13,-6,-3,11,2,19,12,8,-7,16,8,36,57,-102,24,-38,19,-3,-127,21,5,-54,33,19,-14,11,10,-7,5,6,12,-16,-9,6,-54,64,-25,15,10,-8,34,15,-58,-26,19,26,8,-38,-58,13,19,-10,95,47,10,-2,-16,-17,16,23,-13,-5,-9,16,-26,13, 
  /* [12][0][][] */ -34,-13,13,13,-11,41,24,-13,126,5,-13,5,-12,7,-48,-48,24,23,20,73,56,36,-18,-25,-1,19,20,-35,-127,6,31,-48,-7,-23,1,-13,16,4,38,-17,-49,-31,0,13,2,34,14,-12,16,0,-49,16,-3,0,19,-15,55,-25,12,11,16,-20,2,-16,6,40,-42,4,18,16,-8,-41,9,18,-76,15,17,-5,14,-64,-15,11,58,50,-24,-14,-22,-24,2,33,2,55,-11,-17,19,13, 
  /* [13][0][][] */ 27,-5,-37,32,25,5,5,-11,-14,6,-4,7,16,-16,12,-4,17,-74,-42,11,-10,-22,14,-2,7,12,-2,-9,-16,-36,-1,15,-7,8,18,48,14,2,5,3,1,8,19,44,19,19,-1,-127,17,-5,10,7,-18,0,20,2,-20,12,27,12,-5,16,-15,2,-4,-16,-20,-59,10,21,-9,-30,-20,31,-10,23,-26,-9,12,5,35,-17,-9,23,10,31,19,14,-4,4,31,-5,0,20,-10,-2, 
  /* [14][0][][] */ -107,-63,18,46,22,-31,-23,34,-43,11,-8,1,56,1,-125,6,86,-16,-15,27,-29,-27,36,19,-117,7,19,-18,-53,-87,-28,-2,7,7,5,-48,34,12,-20,31,33,32,-13,-38,-5,124,81,58,-127,61,15,29,-62,-24,46,-14,-11,3,57,61,33,57,22,43,-15,-16,-50,48,-2,90,-58,-76,-73,17,-3,59,-5,40,77,-3,69,-31,30,22,39,16,49,42,44,72,73,-16,-23,31,16,-31, 
  /* [15][0][][] */ 82,-5,41,-12,0,86,37,-27,-25,54,11,21,-87,-35,-14,39,23,33,28,-15,-3,6,-127,63,24,3,54,2,6,45,-55,-84,9,-64,38,-1,32,-53,-76,-104,8,2,1,61,-11,42,-12,-48,94,-49,-53,33,50,-122,48,-119,-22,-75,21,16,-123,4,13,6,77,-14,-55,40,-10,88,-35,21,42,18,-8,19,18,-54,56,-21,-23,1,38,95,-17,2,4,-55,0,18,76,-9,-69,53,21,-19, 
};
const TfArray<4, int> tensor_dimension15 = { 4, { 16,1,1,96 } };
const TfArray<16, float> quant15_scale = { 16, { 0.01934480294585228, 0.010521505959331989, 0.012246493250131607, 0.010000419802963734, 0.015422837808728218, 0.012419424951076508, 0.012448396533727646, 0.018480792641639709, 0.0071869301609694958, 0.0084471087902784348, 0.015757128596305847, 0.028054848313331604, 0.017424430698156357, 0.017952565103769302, 0.018284393474459648, 0.014947559684514999, } };
const TfArray<16, int> quant15_zero = { 16, { 0,0,0,0,0,0,0,0,0,0,0,0,0,0,0,0 } };
const TfLiteAffineQuantization quant15 = { (TfLiteFloatArray*)&quant15_scale, (TfLiteIntArray*)&quant15_zero, 0 };
const ALIGN(16) int32_t tensor_data16[96] = { 11521, -8681, 3400, 50003, -1874, -4314, -11112, 2550, -2902, 592, 2957, -1916, 984, -6668, 6332, -7152, -986, 16119, 25996, 2606, 3257, -2876, 357, -100, 19641, -1425, -845, -3383, -5613, -8128, 6857, -9286, -145, -2067, -118, 18170, 1675, -3610, 19698, 616, -530, 1868, -9840, -7431, -7396, 67522, -1070, 21241, 33833, -11926, -255, 7040, 8751, -107, -5738, 2003, -10322, 1199, 2037, -7315, -1216, -1233, -13262, -365, 1104, 16691, 28800, 28876, -11922, 269, -9611, -784, 53859, 9470, -170, 1079, 19695, 33443, -321, -3774, -1285, -5322, 385, -3177, 514, 1424, 989, -1070, 2079, -3786, -693, 182, -432, -516, 240, 50716, };
const TfArray<1, int> tensor_dimension16 = { 1, { 96 } };
const TfArray<96, float> quant16_scale = { 96, { 0.0001598730159457773, 0.00012317112123128027, 0.00022228287707548589, 4.1851548303384334e-05, 0.00013948790729045868, 0.00015334389172494411, 0.00030265309032984078, 8.0539721238892525e-05, 0.00011994288070127368, 0.00040855552651919425, 0.00016115378821268678, 0.00030894152587279677, 9.6257470431737602e-05, 0.00041170945041812956, 0.00016304236487485468, 0.0001070166690624319, 8.4124418208375573e-05, 0.00027309721917845309, 5.9595029597403482e-05, 0.00022698820976074785, 4.3794087105197832e-05, 0.00016994601173792034, 0.00011725089279934764, 0.00034760971902869642, 0.00018090501544065773, 0.00024890428176149726, 0.0001173810160253197, 0.00017266380018554628, 0.00012328092998359352, 8.637689461465925e-05, 0.00012404874723870307, 0.00016132567543536425, 0.00012306399003136903, 0.00010528031998546794, 0.00019946246175095439, 0.00012902758317068219, 0.00041077355854213238, 0.00012436017277650535, 6.3252446125261486e-05, 0.00013829083763994277, 0.00023269167286343873, 0.00029940839158371091, 0.00034425730700604618, 0.00015494110994040966, 0.0001726052287267521, 5.2674131438834593e-05, 0.00018790835747495294, 0.00016335003601852804, 7.7643380791414529e-05, 0.0001884803205030039, 0.00019771860388573259, 0.00017166405450552702, 0.0002087130123982206, 0.00033840176183730364, 0.00026586628518998623, 0.00037057904410175979, 0.0003828333574347198, 0.00019388090004213154, 9.5136150775942951e-05, 7.9390774772036821e-05, 0.00030499501735903323, 0.00012795731890946627, 0.0002640934253577143, 0.00013071090506855398, 0.00021355762146413326, 0.00017114297952502966, 8.0348982010036707e-05, 6.1703351093456149e-05, 0.00030832630000077188, 0.00023711648827884346, 0.0001929806312546134, 0.00010256403766106814, 0.00010768347419798374, 0.00014611176447942853, 0.00012593914289027452, 0.00022476937738247216, 0.00056825001956894994, 4.7493140300503001e-05, 0.0002581362787168473, 0.00049823435256257653, 0.00015811507182661444, 0.00039394985651597381, 0.00015985751815605909, 0.00014283934433478862, 0.00011904681741725653, 9.1121837613172829e-05, 0.00011721262126229703, 0.00015212102152872831, 0.00019119233184028417, 8.7080356024671346e-05, 0.00018321012612432241, 0.0001091466547222808, 0.00013312033843249083, 0.00040072263800539076, 0.0052322051487863064, 7.4215269705746323e-05, } };
const TfArray<96, int> quant16_zero = { 96, { 0,0,0,0,0,0,0,0,0,0,0,0,0,0,0,0,0,0,0,0,0,0,0,0,0,0,0,0,0,0,0,0,0,0,0,0,0,0,0,0,0,0,0,0,0,0,0,0,0,0,0,0,0,0,0,0,0,0,0,0,0,0,0,0,0,0,0,0,0,0,0,0,0,0,0,0,0,0,0,0,0,0,0,0,0,0,0,0,0,0,0,0,0,0,0,0 } };
const TfLiteAffineQuantization quant16 = { (TfLiteFloatArray*)&quant16_scale, (TfLiteIntArray*)&quant16_zero, 0 };
const ALIGN(16) int8_t tensor_data17[1*3*3*96] = { 
  /* [0][0][][] */ -18,2,-22,107,-16,20,-63,-55,17,-6,99,-9,5,-9,-5,55,4,16,-29,2,72,3,32,-35,1,19,44,48,23,13,23,49,-8,29,8,-14,3,49,-65,-26,23,9,27,18,-83,-55,27,-6,-12,-21,-9,-5,50,6,-8,3,-5,-34,26,-29,27,-4,127,28,-13,-11,10,-53,63,35,2,-8,76,-33,71,3,16,-126,29,67,1,13,127,-15,38,30,-25,-18,35,-4,-13,79,1,19,-2,12, -50,12,-9,11,53,-6,-10,-127,39,14,-127,-5,-15,-12,4,97,17,-30,-14,-15,77,-96,127,25,-62,-30,-103,-15,27,36,-49,17,114,14,-15,0,-24,127,-70,-127,11,-19,-30,12,46,-127,127,-46,-77,48,48,8,39,-64,31,58,37,45,-99,85,127,34,5,-20,44,-39,-95,-1,36,-30,-19,44,-46,-48,105,-5,-30,-59,-32,67,-68,59,-14,9,-11,49,57,-41,-29,55,-12,72,-127,-33,24,-127, 0,-4,-23,-76,9,21,36,19,-2,-1,5,63,3,-11,-11,8,-14,16,-14,15,6,26,27,-35,1,-30,11,9,-7,5,45,-79,46,21,6,-22,10,5,-33,-20,10,2,-16,9,22,-33,23,-1,6,-10,5,-4,5,6,-3,7,-10,46,4,2,9,-15,3,-17,-26,-17,33,-50,-105,-6,40,-22,-127,-25,-9,15,10,-11,5,11,-14,20,-38,-3,-42,20,25,37,-26,-13,26,-13,17,5,-3,-47, 
  /* [0][1][][] */ -42,56,-18,39,-86,-16,-11,-44,25,97,-45,-22,-31,-26,-7,63,127,-24,-91,-14,59,-127,-32,16,-35,-45,-127,-4,40,37,-50,27,-127,-76,-58,4,65,-5,-53,45,-17,87,0,-3,35,-49,-10,-32,127,44,-3,22,43,9,-38,-18,30,10,-124,127,-36,-89,20,127,-59,-35,-83,124,-38,127,-16,53,-35,-55,38,8,-35,-70,127,47,127,35,7,-2,127,28,-97,47,-38,-35,-100,39,98,104,28,-59, 127,127,127,127,-47,-127,127,23,127,-127,15,-127,-103,127,127,127,-15,-127,-64,-127,127,23,-66,127,127,127,-56,-127,127,127,-127,127,-7,-127,-121,127,-127,-44,95,111,-127,-127,127,127,127,-114,-104,127,-14,127,-127,-127,-127,127,127,-127,127,-127,-41,41,-109,-28,-70,-66,127,127,-69,127,127,-105,-127,127,-42,127,-127,-127,-127,127,-76,127,-44,127,79,127,-39,-127,-24,-107,-127,-124,-21,-127,-19,-127,-127,118, -25,65,-37,1,127,73,-22,49,5,26,-12,-4,-27,-29,-13,-6,-105,-21,-127,37,33,78,-14,-116,-34,-38,124,74,10,33,71,10,119,-48,127,-3,54,5,-89,14,36,22,-23,1,-23,-52,-11,-44,81,11,-12,41,-8,-5,-77,-14,23,21,127,-90,4,127,0,-36,-110,-29,-72,99,14,-15,112,24,-18,-59,13,46,-30,-9,-44,-5,-46,8,47,25,-91,33,127,-46,31,-21,127,-11,-111,35,33,17, 
  /* [0][2][][] */ -5,-38,-22,-62,-5,14,41,31,-1,11,-16,52,25,-35,-9,2,41,3,13,19,-12,30,-17,-25,2,-22,7,2,-6,-6,48,-75,-37,67,-27,-25,31,-34,-68,17,10,11,-34,20,12,-76,-12,-1,-10,5,16,-7,8,0,-21,6,-6,46,-50,34,-7,-10,4,18,-4,-9,22,-56,-58,12,-19,-12,-116,-31,1,16,14,-11,57,18,23,22,-38,17,11,26,-20,11,3,23,25,-5,21,41,-7,-28, -28,-10,-27,25,-43,78,-24,63,7,-4,55,-12,127,-6,-20,-20,1,-40,-56,21,-21,79,-42,-110,-50,-46,96,68,16,46,52,0,-118,64,-11,-23,-28,-26,-127,-3,44,-13,-15,37,-27,-45,-16,-49,-62,27,68,26,-11,-81,31,52,19,27,72,-57,20,-56,-8,1,20,-26,-127,-56,-12,-27,-63,22,34,-46,-30,-10,-46,23,-56,1,48,32,18,10,5,60,-96,127,16,127,-30,-17,116,-21,46,80, -9,-33,-26,28,15,63,-42,14,4,-4,1,13,12,-48,-10,-19,-44,-4,15,18,-25,4,-22,4,-5,20,-5,50,0,-6,33,31,20,40,22,-22,-5,-26,-32,9,11,-12,21,9,-73,-34,-13,3,-2,-18,-1,-4,-8,9,-17,-5,-2,-50,12,-30,-22,50,9,-28,-9,-1,35,-55,46,8,52,-20,26,-55,-19,20,9,11,-4,23,-30,29,87,-14,-18,54,40,-8,109,12,3,-20,10,-22,-7,-49, 
};
const TfArray<4, int> tensor_dimension17 = { 4, { 1,3,3,96 } };
const TfArray<96, float> quant17_scale = { 96, { 0.0067946030758321285, 0.0052347728051245213, 0.0094470223411917686, 0.0017786907264962792, 0.0059282360598444939, 0.0065171155147254467, 0.012862755917012691, 0.0034229380544275045, 0.0050975722260773182, 0.017363609746098518, 0.0068490360863506794, 0.013130014762282372, 0.0040909424424171448, 0.017497651278972626, 0.0069293002597987652, 0.0045482083223760128, 0.0035752877593040466, 0.011606631800532341, 0.002532788785174489, 0.009646998718380928, 0.0018612486310303211, 0.0072227055206894875, 0.0049831629730761051, 0.014773412607610226, 0.0076884627342224121, 0.010578432120382786, 0.0049886931665241718, 0.0073382114060223103, 0.0052394391968846321, 0.0036710179410874844, 0.0052720718085765839, 0.0068563409149646759, 0.0052302195690572262, 0.0044744135811924934, 0.0084771541878581047, 0.005483672022819519, 0.017457876354455948, 0.0052853072993457317, 0.0026882288511842489, 0.0058773602358996868, 0.0098893959075212479, 0.012724855914711952, 0.014630935154855251, 0.0065849972888827324, 0.0073357219807803631, 0.0022386505734175444, 0.0079861050471663475, 0.0069423764944076538, 0.0032998437527567148, 0.0080104134976863861, 0.0084030404686927795, 0.0072957221418619156, 0.0088703026995062828, 0.0143820745870471, 0.011299316771328449, 0.015749609097838402, 0.016270417720079422, 0.0082399379462003708, 0.0040432862006127834, 0.0033741078805178404, 0.012962288223206997, 0.0054381862282752991, 0.011223970912396908, 0.0055552134290337563, 0.0090761985629796982, 0.0072735766880214214, 0.0034148315899074078, 0.0026223924942314625, 0.013103867881000042, 0.010077450424432755, 0.0082016764208674431, 0.0043589714914560318, 0.0045765475369989872, 0.0062097497284412384, 0.00535241374745965, 0.0095526985824108124, 0.024150624871253967, 0.0020184584427624941, 0.010970791801810265, 0.02117495983839035, 0.0067198905162513256, 0.016742868348956108, 0.0067939446307718754, 0.0060706720687448978, 0.0050594895146787167, 0.0038726781494915485, 0.0049815364181995392, 0.0064651430584490299, 0.0081256739795207977, 0.0037009150255471468, 0.0077864304184913635, 0.0046387328766286373, 0.0056576142087578773, 0.017030712217092514, 0.22236871719360352, 0.0031541488133370876, } };
const TfArray<96, int> quant17_zero = { 96, { 0,0,0,0,0,0,0,0,0,0,0,0,0,0,0,0,0,0,0,0,0,0,0,0,0,0,0,0,0,0,0,0,0,0,0,0,0,0,0,0,0,0,0,0,0,0,0,0,0,0,0,0,0,0,0,0,0,0,0,0,0,0,0,0,0,0,0,0,0,0,0,0,0,0,0,0,0,0,0,0,0,0,0,0,0,0,0,0,0,0,0,0,0,0,0,0 } };
const TfLiteAffineQuantization quant17 = { (TfLiteFloatArray*)&quant17_scale, (TfLiteIntArray*)&quant17_zero, 3 };
const ALIGN(16) int32_t tensor_data18[96] = { 18443, 1222, 8872, -661, 5248, 6332, 20576, 6628, -1730, 20384, 7612, 1603, 6978, 32752, -489, -2195, 11111, 9288, 2350, -188, -674, 16017, 6368, 5238, 10590, 8169, 4871, 5448, -29, -27, 9081, 8345, 14037, 1979, 7004, -508, 16275, 8543, 926, 6998, 1072, 14212, 19120, 5676, 3171, 14207, 19304, 5291, 5672, 4638, 336, -1235, 14085, 7488, 9098, 13454, -415, 7825, 3241, 4415, 16794, 9549, 3814, 7606, 9713, 4187, 7782, -1098, 19125, 6696, 11797, -1146, -1589, 3361, 2921, 3931, 25211, 16537, 20744, -3370, 6584, -5988, -2434, 693, 9058, 5629, 7457, 5323, 11292, 5968, 10061, 4100, 17521, 24599, -13029, 17967, };
const TfArray<1, int> tensor_dimension18 = { 1, { 96 } };
const TfArray<96, float> quant18_scale = { 96, { 0.00014133079093880951, 0.00023913512995932251, 0.00015245542454067618, 0.00084010499995201826, 0.00030739681096747518, 0.00014404300600290298, 0.00015241117216646671, 0.0005341246142052114, 0.00028235718491487205, 8.9704808488022536e-05, 0.00019343820167705417, 0.00051610858645290136, 0.00038720565498806536, 0.00014530390035361052, 0.00022027784143574536, 0.00030169135425239801, 0.0002033773489529267, 0.0002485011937096715, 0.00019614450866356492, 0.00059217854868620634, 0.0003816361422650516, 0.00015425596211571246, 0.00023520417744293809, 0.00015033103409223258, 0.00017043521802406758, 0.00025069116964004934, 0.00029023911338299513, 0.00016494609008077532, 0.00058710837038233876, 0.00027677352773025632, 0.00015742231335025281, 0.0002198369475081563, 0.00013987169950269163, 0.00055823172442615032, 0.00023685954511165619, 0.00050666701281443238, 0.00013936527830082923, 0.00029806263046339154, 0.00051205535419285297, 0.00013795176346320659, 0.00048078459803946316, 0.00013193418271839619, 0.00011265390639891848, 0.00013141952513251454, 0.00033983244793489575, 0.00023160487762652338, 0.00014547680621035397, 0.00027413363568484783, 0.00027151618269272149, 0.00019279039406683296, 0.00028642499819397926, 0.00055437599075958133, 0.00018882258154917508, 0.00021195881708990782, 0.0002550878853071481, 0.00013743808085564524, 0.00036724808160215616, 0.00022079897462390363, 0.0002354034804739058, 0.00035655774991028011, 0.00010368536459282041, 0.00014592630031984299, 0.00027986036729998887, 0.00036051016650162637, 0.00010759558063000441, 0.00027289753779768944, 0.00024425677838735282, 0.00032886245753616095, 0.00014140755229163915, 0.00016189966117963195, 0.00016554468311369419, 0.00038619514089077711, 0.00022223369160201401, 0.00039605551864951849, 0.00014448378351517022, 0.00031556317117065191, 9.6260431746486574e-05, 0.00027202270575799048, 7.9942030424717814e-05, 0.00036541727604344487, 0.00017290774849243462, 0.00034881816827692091, 0.00016819236043374985, 0.0003606494574341923, 0.00017706590006127954, 0.00027727830456569791, 0.00022032807464711368, 0.00026143013383261859, 0.00014750451373402029, 0.00026446345145814121, 0.00013397583097685128, 0.00042356568155810237, 0.00012198630429338664, 0.00011234758858336136, 0.00022615795023739338, 0.00018267678387928754, } };
const TfArray<96, int> quant18_zero = { 96, { 0,0,0,0,0,0,0,0,0,0,0,0,0,0,0,0,0,0,0,0,0,0,0,0,0,0,0,0,0,0,0,0,0,0,0,0,0,0,0,0,0,0,0,0,0,0,0,0,0,0,0,0,0,0,0,0,0,0,0,0,0,0,0,0,0,0,0,0,0,0,0,0,0,0,0,0,0,0,0,0,0,0,0,0,0,0,0,0,0,0,0,0,0,0,0,0 } };
const TfLiteAffineQuantization quant18 = { (TfLiteFloatArray*)&quant18_scale, (TfLiteIntArray*)&quant18_zero, 0 };
const ALIGN(16) int8_t tensor_data19[96*1*1*16] = { 
  /* [0][0][][] */ 51,-40,127,70,51,-23,31,-26,110,9,-57,-70,42,48,-27,-77, 
  /* [1][0][][] */ 53,67,-24,-6,51,-11,4,38,53,86,-51,127,2,-22,99,-60, 
  /* [2][0][][] */ 32,-86,40,-12,-67,35,-62,95,-104,-117,0,51,-39,-127,79,-108, 
  /* [3][0][][] */ 119,127,-7,38,-101,-18,-61,-36,-20,1,97,-62,-65,76,-30,-14, 
  /* [4][0][][] */ -24,-19,27,-4,-43,33,-27,47,-83,-55,3,-18,-6,-127,49,7, 
  /* [5][0][][] */ 127,-46,-15,-5,-37,-117,-21,9,-10,2,-118,-19,45,-19,-6,73, 
  /* [6][0][][] */ -104,-77,1,115,-56,-2,-60,9,-127,-56,-85,-32,12,34,-29,99, 
  /* [7][0][][] */ -20,44,-82,30,65,-127,-11,43,22,-14,36,-5,-8,-1,-48,27, 
  /* [8][0][][] */ 28,-50,-9,-7,3,34,-46,-62,-15,24,-66,1,-127,-11,-7,16, 
  /* [9][0][][] */ 30,-69,26,127,-31,-14,-5,-65,110,-80,-22,-41,5,40,-51,23, 
  /* [10][0][][] */ -96,-33,-1,-55,124,62,36,97,127,-89,-86,12,74,-117,-91,97, 
  /* [11][0][][] */ 37,-18,-127,9,51,21,-28,37,-16,-47,-17,0,-9,18,-33,14, 
  /* [12][0][][] */ 127,-101,38,20,14,-34,-42,-34,44,25,-106,-9,-49,-27,30,38, 
  /* [13][0][][] */ 87,-73,-34,-87,8,-37,-102,-60,-12,-127,-17,8,27,-54,-40,43, 
  /* [14][0][][] */ -62,23,-105,-56,80,-127,68,-58,74,65,-5,-110,31,108,-13,32, 
  /* [15][0][][] */ 32,27,61,26,65,-54,-32,-7,20,-59,-85,23,-127,-49,24,77, 
  /* [16][0][][] */ -111,60,17,23,-5,85,59,70,-15,44,127,7,30,-15,25,-45, 
  /* [17][0][][] */ -32,-8,-34,-26,-21,20,44,59,-14,127,-6,9,-3,63,46,-9, 
  /* [18][0][][] */ 1,121,-50,-7,10,19,34,-61,20,127,-39,101,24,-31,23,-74, 
  /* [19][0][][] */ 2,-24,32,13,5,41,-19,12,14,4,-46,-5,-127,8,-10,26, 
  /* [20][0][][] */ 83,-37,-18,-82,-16,7,27,-69,-39,24,-127,-10,24,4,58,25, 
  /* [21][0][][] */ 44,13,127,35,5,52,44,0,32,48,-23,-2,-7,64,17,14, 
  /* [22][0][][] */ 75,-2,20,25,-14,0,30,127,26,15,-14,61,-11,24,64,26, 
  /* [23][0][][] */ -33,11,-78,10,17,-127,16,36,-12,-31,-23,-24,-92,3,-33,43, 
  /* [24][0][][] */ 34,-60,-4,-76,37,4,-20,-16,36,35,71,97,-40,86,127,46, 
  /* [25][0][][] */ -109,-108,-32,18,-3,-27,14,-47,-113,14,-127,7,30,-1,14,50, 
  /* [26][0][][] */ 14,-5,28,-8,-27,-1,-45,41,-91,-61,-13,2,5,-127,33,-6, 
  /* [27][0][][] */ -118,29,-24,37,47,2,14,29,46,-19,127,20,-29,4,-9,-41, 
  /* [28][0][][] */ -23,-22,16,28,-2,1,-2,75,22,12,-25,-3,-127,-14,-12,30, 
  /* [29][0][][] */ -11,46,24,-36,30,-16,15,-38,-127,29,-37,6,-11,19,-74,11, 
  /* [30][0][][] */ -3,4,-127,-37,41,-76,4,20,-29,-22,-20,-29,-57,-30,5,5, 
  /* [31][0][][] */ 111,-9,-127,-11,49,4,-51,85,1,5,-81,-35,28,-3,-89,34, 
  /* [32][0][][] */ -127,50,9,37,28,62,8,7,20,-12,105,6,-44,-8,-10,-13, 
  /* [33][0][][] */ 10,-34,127,-28,-75,4,23,-35,-8,21,-17,11,-12,6,70,21, 
  /* [34][0][][] */ 9,-47,-15,-86,-1,-24,23,21,-12,-45,-20,-127,21,4,51,11, 
  /* [35][0][][] */ -2,-57,33,43,43,-24,14,-18,-127,40,-13,35,-17,124,-30,-35, 
  /* [36][0][][] */ -127,21,-43,22,-30,26,30,58,4,51,87,7,3,-8,0,-48, 
  /* [37][0][][] */ -33,-6,127,-46,-90,-66,32,-23,4,13,14,2,-4,-51,68,20, 
  /* [38][0][][] */ 9,-13,6,49,22,-31,-55,-6,-25,-20,67,-7,127,21,-15,-2, 
  /* [39][0][][] */ -48,25,-18,-67,-44,-127,60,104,-40,-31,-9,-51,1,36,48,99, 
  /* [40][0][][] */ 59,5,-34,-11,-4,93,-7,5,11,4,26,11,127,4,-23,-11, 
  /* [41][0][][] */ -6,17,-41,-127,20,-18,-39,-95,4,-50,6,-64,-8,-8,-20,27, 
  /* [42][0][][] */ 41,42,18,116,-95,3,-126,-5,-67,-71,71,-79,-34,127,-41,3, 
  /* [43][0][][] */ 30,127,-30,116,21,10,48,-72,-40,63,-14,23,9,-46,52,42, 
  /* [44][0][][] */ -19,-31,-127,19,45,60,-47,40,-28,-33,27,-24,0,-33,-60,7, 
  /* [45][0][][] */ -11,6,-15,-127,-30,1,40,2,-24,28,-15,10,11,-69,13,-20, 
  /* [46][0][][] */ 13,33,51,-23,9,23,-47,36,31,-50,-18,6,20,127,33,-21, 
  /* [47][0][][] */ 30,-33,30,-46,-45,1,-72,67,-19,-44,11,29,3,-127,32,18, 
  /* [48][0][][] */ 24,-21,13,-127,-12,-13,-8,14,16,-36,15,-19,11,42,3,65, 
  /* [49][0][][] */ 27,-46,0,127,73,7,-21,43,-57,-8,33,32,-11,45,122,-1, 
  /* [50][0][][] */ 0,-44,80,-44,-3,124,-33,-53,52,-40,127,16,117,14,-16,-61, 
  /* [51][0][][] */ 26,34,29,31,12,-1,-47,15,50,-1,-2,127,6,27,29,-66, 
  /* [52][0][][] */ -33,78,100,15,27,-32,20,-52,-25,11,22,35,-6,60,-127,-8, 
  /* [53][0][][] */ -5,-1,-39,-127,-44,-6,-1,-18,-3,5,1,-3,30,3,47,20, 
  /* [54][0][][] */ 27,17,-47,-54,26,-12,-4,32,48,-35,-12,-31,-15,127,48,63, 
  /* [55][0][][] */ -14,-41,-29,-13,26,-21,-4,-127,25,-64,6,-12,-43,-69,-28,-35, 
  /* [56][0][][] */ 39,48,21,46,-4,-26,11,127,22,-20,-8,-32,65,-20,-36,34, 
  /* [57][0][][] */ 74,-49,127,-8,-44,-28,10,-20,31,14,-81,30,29,-30,50,-2, 
  /* [58][0][][] */ 68,81,2,109,-127,0,-7,17,-17,53,112,-27,-93,-67,-57,-112, 
  /* [59][0][][] */ 108,-53,0,23,-30,-3,-26,-3,-38,27,-127,-26,-1,0,-25,-8, 
  /* [60][0][][] */ -127,19,-14,6,6,37,20,32,15,33,94,-6,-55,13,43,-41, 
  /* [61][0][][] */ -72,67,25,69,33,12,-127,-65,124,-123,95,14,70,-53,-91,-79, 
  /* [62][0][][] */ -3,-43,-126,68,73,127,27,125,35,-46,59,-24,-67,-9,-112,-47, 
  /* [63][0][][] */ -40,16,127,-55,-59,-62,40,-20,11,16,10,15,-3,-41,77,18, 
  /* [64][0][][] */ 18,62,-23,24,54,-2,103,-127,-17,113,11,-12,-26,-119,-18,60, 
  /* [65][0][][] */ 5,8,27,-20,70,15,0,-127,-13,-54,-29,-60,4,-36,47,10, 
  /* [66][0][][] */ -127,3,-16,8,-41,21,8,-51,-74,-41,-80,40,54,28,55,85, 
  /* [67][0][][] */ 6,-47,19,127,16,-5,-35,33,65,14,-16,-14,-24,-26,-83,-34, 
  /* [68][0][][] */ 22,-14,2,127,-46,-14,-4,-18,-53,23,8,-17,-11,-70,-17,-34, 
  /* [69][0][][] */ 48,59,48,95,50,30,44,-127,32,75,35,16,2,-2,57,-12, 
  /* [70][0][][] */ -37,-74,17,-67,127,-26,59,-9,82,-7,116,-63,31,96,71,124, 
  /* [71][0][][] */ 2,36,5,79,39,-127,-33,77,35,-93,16,6,12,-67,-58,32, 
  /* [72][0][][] */ -127,-44,-35,36,7,19,-35,37,-42,-28,-114,68,61,14,20,120, 
  /* [73][0][][] */ -5,-13,-25,47,13,-35,-15,-16,63,1,-3,-22,14,127,-33,-40, 
  /* [74][0][][] */ 118,-34,31,-52,-82,-10,51,6,-73,-5,-127,52,-116,-12,33,78, 
  /* [75][0][][] */ -26,-5,-13,127,-31,24,-3,-34,-62,16,-6,-32,-3,-61,-33,-44, 
  /* [76][0][][] */ -2,-25,-8,37,24,11,-25,-126,9,-127,7,27,-33,-20,28,-32, 
  /* [77][0][][] */ 127,-6,33,40,-41,-38,-45,-6,39,-28,-46,42,44,6,-70,56, 
  /* [78][0][][] */ -11,-11,60,8,22,-14,-64,39,59,-11,-46,-32,17,127,59,-47, 
  /* [79][0][][] */ -4,15,46,17,42,58,-59,-59,8,-52,70,-14,127,-21,-19,-33, 
  /* [80][0][][] */ -111,-83,-49,127,9,34,16,-23,-63,19,-58,24,35,-64,-9,11, 
  /* [81][0][][] */ 26,-6,-65,37,127,73,-63,-31,-10,-125,6,-89,-56,1,-100,12, 
  /* [82][0][][] */ 127,115,-20,33,-122,-27,-57,-12,-73,-17,81,-58,-49,71,-9,-27, 
  /* [83][0][][] */ 127,45,6,-25,9,-18,-8,18,28,17,99,-44,-47,-30,-19,-76, 
  /* [84][0][][] */ 32,-95,-113,-44,18,6,6,-127,-65,-86,17,17,-7,-11,-24,-14, 
  /* [85][0][][] */ -27,4,-80,-72,-4,-1,72,91,-16,127,5,-34,52,86,85,-10, 
  /* [86][0][][] */ 62,-31,-3,2,-17,-29,-20,-26,1,-11,-127,3,11,35,-19,11, 
  /* [87][0][][] */ -46,35,35,-68,-41,72,-33,68,-28,-52,24,11,30,-127,6,6, 
  /* [88][0][][] */ 11,-54,-115,-67,73,-24,-44,-127,18,-38,-46,-24,-19,8,32,-26, 
  /* [89][0][][] */ -14,-13,10,-127,34,-3,-88,84,100,-122,30,13,3,77,43,40, 
  /* [90][0][][] */ -50,-4,-60,80,51,9,90,-121,82,127,-40,36,-8,-15,-40,-57, 
  /* [91][0][][] */ 30,-17,-36,-8,4,-127,-22,3,-17,-12,-46,4,33,-10,0,22, 
  /* [92][0][][] */ 24,-8,127,69,49,10,7,31,-14,26,-55,4,19,63,-3,-16, 
  /* [93][0][][] */ 127,-28,-22,-13,-27,-63,-17,20,-11,24,-126,-26,19,63,9,44, 
  /* [94][0][][] */ 26,-17,49,85,126,-35,-5,61,3,-10,-1,65,-12,127,-30,-93, 
  /* [95][0][][] */ -97,14,51,55,9,62,9,12,17,6,127,-2,-31,48,-22,-56, 
};
const TfArray<4, int> tensor_dimension19 = { 4, { 96,1,1,16 } };
const TfArray<96, float> quant19_scale = { 96, { 0.00052792730275541544, 0.00089326582383364439, 0.00056948227575048804, 0.0031381298322230577, 0.0011482506524771452, 0.00053805852076038718, 0.0005693169659934938, 0.0019951700232923031, 0.0010547175770625472, 0.0003350835177116096, 0.00072256941348314285, 0.0019278730032965541, 0.0014463687548413873, 0.00054276845185086131, 0.00082282628864049911, 0.0011269384995102882, 0.0007596961222589016, 0.00092825182946398854, 0.00073267857078462839, 0.0022120249923318624, 0.0014255644055083394, 0.00057620799634605646, 0.00087858212646096945, 0.00056154682533815503, 0.00063664402114227414, 0.00093643227592110634, 0.00108415971044451, 0.00061613996513187885, 0.0021930858492851257, 0.0010338603751733899, 0.0005880356184206903, 0.00082117936108261347, 0.00052247702842578292, 0.0020852198358625174, 0.000884765584487468, 0.0018926048651337624, 0.00052058533765375614, 0.0011133836815133691, 0.0019127324922010303, 0.0005153052625246346, 0.0017959236865863204, 0.00049282721010968089, 0.00042080762796103954, 0.00049090472748503089, 0.0012694108299911022, 0.00086513732094317675, 0.00054341432405635715, 0.0010239992989227176, 0.0010142220417037606, 0.00072014960460364819, 0.0010699124541133642, 0.0020708171650767326, 0.00070532824611291289, 0.00079175137216225266, 0.00095285580027848482, 0.00051338644698262215, 0.0013718191767111421, 0.00082477292744442821, 0.0008793266024440527, 0.0013318865094333887, 0.00038730649976059794, 0.00054509338224306703, 0.0010453909635543823, 0.0013466504169628024, 0.00040191275184042752, 0.0010193820344284177, 0.0009123972849920392, 0.001228433451615274, 0.00052821403369307518, 0.00060476030921563506, 0.00061837595421820879, 0.0014425941044464707, 0.00083013216499239206, 0.001479426515288651, 0.00053970498265698552, 0.0011787553085014224, 0.00035957139334641397, 0.0010161141399294138, 0.00029861560324206948, 0.0013649803586304188, 0.00064587994711473584, 0.0013029760448262095, 0.00062826607609167695, 0.001347170677036047, 0.00066141231218352914, 0.0010357459541410208, 0.00082301389193162322, 0.00097654666751623154, 0.00055098865414038301, 0.00098787725437432528, 0.00050045357784256339, 0.0015821880660951138, 0.00045566787593998015, 0.00041966341086663306, 0.00084479083307087421, 0.00068237120285630226, } };
const TfArray<96, int> quant19_zero = { 96, { 0,0,0,0,0,0,0,0,0,0,0,0,0,0,0,0,0,0,0,0,0,0,0,0,0,0,0,0,0,0,0,0,0,0,0,0,0,0,0,0,0,0,0,0,0,0,0,0,0,0,0,0,0,0,0,0,0,0,0,0,0,0,0,0,0,0,0,0,0,0,0,0,0,0,0,0,0,0,0,0,0,0,0,0,0,0,0,0,0,0,0,0,0,0,0,0 } };
const TfLiteAffineQuantization quant19 = { (TfLiteFloatArray*)&quant19_scale, (TfLiteIntArray*)&quant19_zero, 0 };
const ALIGN(16) int32_t tensor_data20[16] = { -40292, 5148, 2742, -6237, 2089, -5296, -8264, -44299, 217, 28494, 30923, -5839, -2846, -20719, 32462, -42640, };
const TfArray<1, int> tensor_dimension20 = { 1, { 16 } };
const TfArray<16, float> quant20_scale = { 16, { 0.00079649803228676319, 0.00086004816694185138, 0.0010524273384362459, 0.001028437283821404, 0.0010066620307043195, 0.0012298603542149067, 0.00092130131088197231, 0.00053120922530069947, 0.00058106327196583152, 0.00051279243780300021, 0.00078732927795499563, 0.00060562480939552188, 0.0010708968620747328, 0.0013241011183708906, 0.00069601688301190734, 0.00054754153825342655, } };
const TfArray<16, int> quant20_zero = { 16, { 0,0,0,0,0,0,0,0,0,0,0,0,0,0,0,0 } };
const TfLiteAffineQuantization quant20 = { (TfLiteFloatArray*)&quant20_scale, (TfLiteIntArray*)&quant20_zero, 0 };
const ALIGN(16) int8_t tensor_data21[16*1*1*48] = { 
  /* [0][0][][] */ -19,1,-35,15,31,-1,3,112,-49,15,40,4,16,-15,-3,14,7,-10,-13,-5,61,-1,13,127,-21,88,-1,-11,32,-17,22,-33,-17,50,18,-53,12,35,23,-8,-110,-21,21,36,30,23,-122,-61, 
  /* [1][0][][] */ -30,-12,13,17,-29,7,-1,44,-54,-38,2,-42,-17,-17,-1,-9,-23,123,-15,24,3,5,-22,-12,16,-42,15,22,-26,-81,-37,22,-16,-3,25,-3,-5,-40,-1,23,-13,-27,127,13,23,-8,19,-5, 
  /* [2][0][][] */ -21,-7,-12,-36,-1,-65,10,-21,3,11,9,31,14,12,-10,13,-5,-22,-20,-13,-1,0,-1,-127,-8,75,-17,2,0,-17,-1,-7,-11,54,13,0,19,9,25,3,-41,4,-19,-12,-5,-6,15,0, 
  /* [3][0][][] */ -7,30,9,-32,-1,1,0,-8,-17,-3,-1,31,-127,5,-8,0,2,-3,-16,-2,-28,8,5,14,1,-12,-1,20,-9,19,1,18,3,1,20,21,-7,28,36,8,9,4,26,-26,5,0,3,20, 
  /* [4][0][][] */ 31,-29,11,9,22,31,19,-28,-26,-2,-11,-16,-1,14,5,17,18,-9,-78,6,-4,5,12,67,1,-27,6,41,9,-70,13,9,16,-38,35,-127,13,35,-5,24,-20,21,12,-21,-18,-18,11,7, 
  /* [5][0][][] */ 28,0,-18,61,3,-7,8,22,5,-1,27,16,3,47,0,-1,-30,22,28,-1,11,-3,3,-25,1,-52,-6,-19,-4,-8,8,14,53,-127,3,34,-19,-11,12,2,-88,56,17,-3,-13,3,-99,-13, 
  /* [6][0][][] */ 21,-7,5,12,-12,-6,0,-15,1,9,-3,14,-11,6,9,4,-3,-5,127,8,5,14,15,-33,3,1,23,-15,-11,-6,-1,6,2,-10,26,-38,-4,-49,65,17,3,-8,-8,8,-19,2,8,-14, 
  /* [7][0][][] */ -45,-21,-14,34,-15,83,-12,51,-6,35,-2,127,85,-6,-14,-7,2,-23,-13,-16,-33,-7,-21,74,-19,-38,-56,-29,-10,-14,-13,-11,4,3,-31,1,9,-60,107,5,27,25,-74,-71,27,-8,3,22, 
  /* [8][0][][] */ -51,-36,-10,5,-5,6,-2,29,-3,-67,7,46,43,4,4,4,-16,55,-36,14,-47,14,-7,-15,-3,2,9,44,-13,112,-14,18,0,-3,-11,-127,-101,55,36,35,16,0,104,-28,3,22,22,27, 
  /* [9][0][][] */ -23,5,5,33,20,-33,-3,-6,69,-38,-3,62,-56,0,8,-1,-20,27,-35,-24,52,6,-16,-18,2,4,49,-31,13,10,15,1,0,18,78,-101,-14,-127,-105,3,-30,26,61,14,-7,12,-15,-51, 
  /* [10][0][][] */ -22,-6,-29,-127,43,87,8,-9,0,32,17,10,46,-45,-47,23,30,-44,52,-31,33,-31,43,49,-39,-94,1,-33,41,33,43,-35,-33,-83,26,-4,12,-39,8,-35,-35,-59,-12,5,13,13,4,-36, 
  /* [11][0][][] */ 2,60,-14,63,28,-67,-72,-20,-1,64,-20,12,-9,59,3,-75,24,44,-4,-12,-54,-102,8,4,-3,-35,17,-23,48,-30,22,-80,36,-17,-36,-82,91,17,-2,-127,-3,57,97,-74,-4,-46,27,28, 
  /* [12][0][][] */ 127,-7,-15,9,3,20,11,105,20,-15,-63,-33,-2,12,-28,0,-9,9,0,-7,6,-5,4,17,-10,13,-6,11,-6,11,2,6,4,-69,-9,13,-22,-11,-24,-6,-20,-80,8,-124,-55,-5,85,-9, 
  /* [13][0][][] */ 9,4,-4,4,9,-10,1,1,1,4,2,23,-6,4,3,2,6,2,8,6,10,-13,7,-4,-1,2,13,127,12,-4,6,-3,3,-2,-36,19,5,-5,6,-20,-15,-3,4,2,-1,-2,-8,-15, 
  /* [14][0][][] */ 60,-20,28,-63,41,24,41,-82,-54,-46,-5,109,-65,0,54,16,62,28,-53,58,17,0,71,-14,5,64,-36,-89,19,-36,60,42,-11,68,-127,-46,-41,39,93,-9,-33,6,44,-11,14,-11,12,-26, 
  /* [15][0][][] */ -5,-53,-88,-34,55,26,75,-55,-11,2,-12,-40,84,22,-88,75,76,54,83,-76,-104,-21,58,-15,-107,39,34,52,59,45,52,-56,19,63,103,116,-17,-111,-8,-33,94,60,127,-48,0,-43,-12,71, 
};
const TfArray<4, int> tensor_dimension21 = { 4, { 16,1,1,48 } };
const TfArray<16, float> quant21_scale = { 16, { 0.033851165324449539, 0.036552045494318008, 0.04472815990447998, 0.043708585202693939, 0.042783137410879135, 0.052269063889980316, 0.039155304431915283, 0.022576391696929932, 0.02469518780708313, 0.021793678402900696, 0.033461492508649826, 0.025739055126905441, 0.04551311582326889, 0.056274294853210449, 0.029580717906355858, 0.023270515725016594, } };
const TfArray<16, int> quant21_zero = { 16, { 0,0,0,0,0,0,0,0,0,0,0,0,0,0,0,0 } };
const TfLiteAffineQuantization quant21 = { (TfLiteFloatArray*)&quant21_scale, (TfLiteIntArray*)&quant21_zero, 0 };
const ALIGN(16) int32_t tensor_data22[48] = { 2172, 34376, -1232, 37588, 4404, 131037, -2521, 43315, 2073, 35101, 22070, -378, -896, 29443, -834, -1205, -497, -1576, 1949, -1787, 445, -897, 934, -17531, -5109, 40954, 129879, 101273, 3971, 2707, -3602, -82, 22628, 1085, 40789, -4035, 44973, -288, 51476, 1252, 2951, 59738, 663, 4452, 49719, -985, 1194, 50756, };
const TfArray<1, int> tensor_dimension22 = { 1, { 48 } };
const TfArray<48, float> quant22_scale = { 48, { 8.1943217082880437e-05, 3.7475048884516582e-05, 0.00015110663662198931, 5.7694305723998696e-05, 0.00015349387831520289, 6.186158861964941e-05, 0.00016910022532101721, 0.0001362157054245472, 9.1167603386566043e-05, 3.8249472709139809e-05, 4.4178705138619989e-05, 0.0001044085729517974, 4.3706499127438292e-05, 3.3808493753895164e-05, 0.00014938072126824409, 0.00022240186808630824, 0.00014214903058018535, 0.00012847033212892711, 0.00010439432662678882, 0.00013012903218623251, 7.3152237746398896e-05, 0.00019128176791127771, 9.594571019988507e-05, 0.00010543276584940031, 9.2378395493142307e-05, 0.00010845935321412981, 2.9736707801930606e-05, 7.1440605097450316e-05, 0.00011576811812119558, 0.00010851165279746056, 0.00010611931065795943, 0.00013461003254633397, 5.2016737754456699e-05, 0.00014454805932473391, 2.876917460525874e-05, 6.0586160543607548e-05, 0.00012990859977435321, 0.000103313650470227, 0.00011302343773422763, 9.8417316621635109e-05, 8.9134038717020303e-05, 9.83183563221246e-05, 8.0053447163663805e-05, 8.7003281805664301e-05, 3.4186443372163922e-05, 0.00013018926256336272, 0.00010898888285737485, 2.8252319680177607e-05, } };
